{"learner":{"attributes":{"scikit_learn":"{\"_estimator_type\": \"regressor\"}"},"feature_names":["corridor_enc","bhk","sqft","bathrooms","floor","total_floors","property_age","furnishing_enc","parking","amenity_count","has_gym","has_pool","has_clubhouse","has_garden","has_playground","has_security","has_power_backup","has_lift","has_parking","has_cctv","floor_ratio"],"feature_types":["int","int","int","int","int","int","int","int","int","int","int","int","int","int","int","int","int","int","int","int","float"],"gradient_booster":{"model":{"gbtree_model_param":{"num_parallel_tree":"1","num_trees":"200"},"iteration_indptr":[0,1,2,3,4,5,6,7,8,9,10,11,12,13,14,15,16,17,18,19,20,21,22,23,24,25,26,27,28,29,30,31,32,33,34,35,36,37,38,39,40,41,42,43,44,45,46,47,48,49,50,51,52,53,54,55,56,57,58,59,60,61,62,63,64,65,66,67,68,69,70,71,72,73,74,75,76,77,78,79,80,81,82,83,84,85,86,87,88,89,90,91,92,93,94,95,96,97,98,99,100,101,102,103,104,105,106,107,108,109,110,111,112,113,114,115,116,117,118,119,120,121,122,123,124,125,126,127,128,129,130,131,132,133,134,135,136,137,138,139,140,141,142,143,144,145,146,147,148,149,150,151,152,153,154,155,156,157,158,159,160,161,162,163,164,165,166,167,168,169,170,171,172,173,174,175,176,177,178,179,180,181,182,183,184,185,186,187,188,189,190,191,192,193,194,195,196,197,198,199,200],"tree_info":[0,0,0,0,0,0,0,0,0,0,0,0,0,0,0,0,0,0,0,0,0,0,0,0,0,0,0,0,0,0,0,0,0,0,0,0,0,0,0,0,0,0,0,0,0,0,0,0,0,0,0,0,0,0,0,0,0,0,0,0,0,0,0,0,0,0,0,0,0,0,0,0,0,0,0,0,0,0,0,0,0,0,0,0,0,0,0,0,0,0,0,0,0,0,0,0,0,0,0,0,0,0,0,0,0,0,0,0,0,0,0,0,0,0,0,0,0,0,0,0,0,0,0,0,0,0,0,0,0,0,0,0,0,0,0,0,0,0,0,0,0,0,0,0,0,0,0,0,0,0,0,0,0,0,0,0,0,0,0,0,0,0,0,0,0,0,0,0,0,0,0,0,0,0,0,0,0,0,0,0,0,0,0,0,0,0,0,0,0,0,0,0,0,0,0,0,0,0,0,0],"trees":[{"base_weights":[3.0080596E-1,-4.2702248E1,1.3177335E2,-6.7761765E1,-6.785239E0,8.760885E1,2.3792297E2,-9.201875E1,-6.121865E1,2.3820868E1,-3.7384476E1,1.4278636E2,3.1270933E1,3.2128113E2,1.3850098E2,-8.584185E0,-9.801063E0,-4.655608E1,-7.531104E1,2.9893742E1,-2.7002826E0,-3.1464813E1,-4.8132904E1,1.552726E2,9.076765E1,4.5568806E1,1.6330072E1,3.739925E2,2.805316E2,1.6367265E2,1.2036504E2,-4.0895668E1,-5.516168E1,-7.217621E0,-8.034717E0,3.858099E1,2.1698473E1,3.4823003E0,-2.2591793E1,-3.53434E1,-2.6951271E1,-4.2049686E1,-5.380671E0,1.6284505E2,1.3031758E2,8.194286E1,1.01456085E2,3.9900063E1,5.4977898E1,2.3105206E1,5.729823E0,3.325979E1,4.091117E1,2.8828583E2,1.7962027E1,7.576871E1,1.681634E2,1.2294317E2,5.8605236E1,-4.298479E0,-3.589444E0,-4.977074E0,-6.022539E0,2.8134096E0,4.772491E0,1.8648018E0,3.5544517E0,-1.4892025E-1,9.3945295E-1,-2.814637E0,-9.976519E-1,-3.951245E0,-3.3268182E0,-2.8852122E0,-2.3550286E0,-4.3909616E0,-3.1720371E0,1.4585777E1,1.7375822E1,7.141809E0,1.3302892E1,8.910475E0,5.3992915E0,1.0795838E1,6.7252E0,5.122251E0,3.4730916E0,3.4587052E0,6.212932E0,1.3892616E0,3.1205082E0,-4.0145078E-1,1.5015635E0,2.5843155E1,3.1383738E1,8.256956E0,2.0882225E0,1.7055607E1,7.9465837E0,7.959484E0,1.2742404E1,1.2967224E0,6.405037E0],"categories":[],"categories_nodes":[],"categories_segments":[],"categories_sizes":[],"default_left":[0,0,0,0,0,0,0,0,0,0,0,0,0,0,0,0,0,0,0,0,0,0,0,0,0,0,0,0,0,0,0,0,0,0,0,0,0,0,0,0,0,0,0,0,0,0,0,0,0,0,0,0,0,0,0,0,0,0,0,0,0,0,0,0,0,0,0,0,0,0,0,0,0,0,0,0,0,0,0,0,0,0,0,0,0,0,0,0,0,0,0,0,0,0,0,0,0,0,0,0,0,0,0],"id":0,"left_children":[1,3,5,7,9,11,13,15,17,19,21,23,25,27,29,-1,-1,31,33,35,37,39,41,43,45,47,49,51,53,55,57,59,61,-1,-1,63,65,67,69,71,73,75,-1,77,79,81,83,85,87,89,91,-1,-1,93,-1,95,97,99,101,-1,-1,-1,-1,-1,-1,-1,-1,-1,-1,-1,-1,-1,-1,-1,-1,-1,-1,-1,-1,-1,-1,-1,-1,-1,-1,-1,-1,-1,-1,-1,-1,-1,-1,-1,-1,-1,-1,-1,-1,-1,-1,-1,-1],"loss_changes":[3.6036788E7,4.322543E6,7.344076E6,4.43375E5,1.8505245E6,3.449174E6,3.776102E6,1.37565E4,4.574865E5,1.5920762E5,6.1349E4,3.50286E5,1.16961875E5,4.32076E5,7.707975E4,0E0,0E0,5.11315E4,1.21355E4,5.6403062E4,2.283014E4,1.0251375E4,9.7831875E3,6.4004E4,2.15625E3,1.279425E4,1.933032E4,1.8028E4,6.168E4,2.120775E4,1.3016625E4,5.405125E3,8.79525E3,0E0,0E0,3.581675E4,1.6907656E4,4.1877485E3,2.8023867E3,1.63575E3,1.2599531E3,1.9308125E3,0E0,3.8058E4,8.06575E3,8.4005E3,2.9702188E3,8.697406E3,1.28709375E4,1.1878914E4,9.742071E3,0E0,0E0,2.035E4,0E0,5.1541016E2,3.6365E3,1.3360375E4,9.0897656E2,0E0,0E0,0E0,0E0,0E0,0E0,0E0,0E0,0E0,0E0,0E0,0E0,0E0,0E0,0E0,0E0,0E0,0E0,0E0,0E0,0E0,0E0,0E0,0E0,0E0,0E0,0E0,0E0,0E0,0E0,0E0,0E0,0E0,0E0,0E0,0E0,0E0,0E0,0E0,0E0,0E0,0E0,0E0,0E0],"parents":[2147483647,0,0,1,1,2,2,3,3,4,4,5,5,6,6,7,7,8,8,9,9,10,10,11,11,12,12,13,13,14,14,17,17,18,18,19,19,20,20,21,21,22,22,23,23,24,24,25,25,26,26,27,27,28,28,29,29,30,30,31,31,32,32,35,35,36,36,37,37,38,38,39,39,40,40,41,41,43,43,44,44,45,45,46,46,47,47,48,48,49,49,50,50,53,53,55,55,56,56,57,57,58,58],"right_children":[2,4,6,8,10,12,14,16,18,20,22,24,26,28,30,-1,-1,32,34,36,38,40,42,44,46,48,50,52,54,56,58,60,62,-1,-1,64,66,68,70,72,74,76,-1,78,80,82,84,86,88,90,92,-1,-1,94,-1,96,98,100,102,-1,-1,-1,-1,-1,-1,-1,-1,-1,-1,-1,-1,-1,-1,-1,-1,-1,-1,-1,-1,-1,-1,-1,-1,-1,-1,-1,-1,-1,-1,-1,-1,-1,-1,-1,-1,-1,-1,-1,-1,-1,-1,-1,-1],"split_conditions":[4E0,3E0,5E0,2E0,1E0,1E0,1E0,1E0,1E0,1.5E1,7E0,1.5E1,5E0,3E0,3E0,-8.584185E0,-9.801063E0,7E0,7E0,3E0,2.5E1,6E0,1.5E1,7E0,1E0,7E0,1.5E1,1E0,2.5E1,1E0,2.5E1,7E0,1.5E1,-7.217621E0,-8.034717E0,1E0,9E0,6E0,6E0,2E0,9E0,9E0,-5.380671E0,3.5E-1,1E0,1E0,1.1E1,1E0,2.8E-1,5E0,1E0,3.325979E1,4.091117E1,1E0,1.7962027E1,2E0,2.5E1,1E0,1E0,-4.298479E0,-3.589444E0,-4.977074E0,-6.022539E0,2.8134096E0,4.772491E0,1.8648018E0,3.5544517E0,-1.4892025E-1,9.3945295E-1,-2.814637E0,-9.976519E-1,-3.951245E0,-3.3268182E0,-2.8852122E0,-2.3550286E0,-4.3909616E0,-3.1720371E0,1.4585777E1,1.7375822E1,7.141809E0,1.3302892E1,8.910475E0,5.3992915E0,1.0795838E1,6.7252E0,5.122251E0,3.4730916E0,3.4587052E0,6.212932E0,1.3892616E0,3.1205082E0,-4.0145078E-1,1.5015635E0,2.5843155E1,3.1383738E1,8.256956E0,2.0882225E0,1.7055607E1,7.9465837E0,7.959484E0,1.2742404E1,1.2967224E0,6.405037E0],"split_indices":[1,1,1,1,0,0,0,0,0,6,6,6,6,6,6,0,0,6,6,6,6,9,6,6,13,9,6,12,6,9,6,9,6,0,0,15,9,9,9,9,9,9,0,20,9,12,4,6,20,9,12,0,0,13,0,6,4,9,4,0,0,0,0,0,0,0,0,0,0,0,0,0,0,0,0,0,0,0,0,0,0,0,0,0,0,0,0,0,0,0,0,0,0,0,0,0,0,0,0,0,0,0,0],"split_type":[0,0,0,0,0,0,0,0,0,0,0,0,0,0,0,0,0,0,0,0,0,0,0,0,0,0,0,0,0,0,0,0,0,0,0,0,0,0,0,0,0,0,0,0,0,0,0,0,0,0,0,0,0,0,0,0,0,0,0,0,0,0,0,0,0,0,0,0,0,0,0,0,0,0,0,0,0,0,0,0,0,0,0,0,0,0,0,0,0,0,0,0,0,0,0,0,0,0,0,0,0,0,0],"sum_hessian":[6.372E3,4.802E3,1.57E3,2.828E3,1.974E3,1.11E3,4.6E2,5.98E2,2.23E3,9.87E2,9.87E2,5.6E2,5.5E2,2.49E2,2.11E2,3.02E2,2.96E2,1.095E3,1.135E3,8.03E2,1.84E2,6.39E2,3.48E2,4.5E2,1.1E2,2.8E2,2.7E2,1.05E2,1.44E2,8.5E1,1.26E2,6.64E2,4.31E2,7.09E2,4.26E2,3.88E2,4.15E2,1.41E2,4.3E1,3.4E2,2.99E2,1.72E2,1.76E2,3.41E2,1.09E2,6.5E1,4.5E1,1.78E2,1.02E2,1.64E2,1.06E2,5.3E1,5.2E1,1.32E2,1.2E1,5E0,8E1,1.2E2,6E0,4.63E2,2.01E2,2.14E2,2.17E2,1.83E2,2.05E2,3.42E2,7.3E1,7.7E1,6.4E1,2.9E1,1.4E1,1.07E2,2.33E2,1.87E2,1.12E2,1.43E2,2.9E1,1.39E2,2.02E2,6E0,1.03E2,5E1,1.5E1,3.6E1,9E0,5.3E1,1.25E2,2.8E1,7.4E1,7.8E1,8.6E1,5.2E1,5.4E1,6.6E1,6.6E1,4E0,1E0,7.7E1,3E0,1.3E1,1.07E2,1E0,5E0],"tree_param":{"num_deleted":"0","num_feature":"21","num_nodes":"103","size_leaf_vector":"1"}},{"base_weights":[-4.3109816E-1,-3.229368E1,1.484488E2,-5.6880173E1,1.0311666E1,2.1543599E2,7.2904305E1,-7.063319E1,-4.381213E1,4.0854958E1,-2.1693888E1,1.734287E2,3.2987216E2,4.9801384E1,1.3633067E2,-8.28674E1,-6.3245144E1,-2.7852371E1,-5.8946003E1,2.090533E1,5.989769E1,-2.8449247E1,1.7187063E0,1.9841689E2,1.308373E2,2.9743533E2,3.7045708E1,6.2028156E1,3.021672E1,1.0576025E2,1.622301E2,-7.7322702E0,-8.819494E0,-5.1958206E1,-7.3605247E0,-3.404434E1,-1.0000813E1,-6.2742027E1,-4.9543465E1,2.6248066E1,-4.2498136E0,4.719632E1,7.981059E1,-3.8705997E1,-2.112498E1,1.4601341E1,-8.776648E0,1.451475E2,2.1317181E2,9.3426674E1,1.5459402E2,3.104109E2,1.8290155E1,4.2370407E1,7.117499E1,2.4677252E1,5.305179E1,1.2264956E2,7.881775E1,1.902422E1,1.2994882E2,-4.7031164E0,-5.937314E0,-2.8223162E0,-4.2994437E0,-3.0420935E-1,-2.29626E0,-5.9768996E0,-6.7669654E0,-4.5912333E0,-5.5230575E0,5.2358184E0,2.066386E0,-1.1577715E0,5.3111583E-1,5.7548E0,2.968977E0,9.107168E0,5.7273974E0,-2.9439008E0,-4.4807105E0,-1.7035275E0,-3.3983128E0,-4.1716838E-1,2.127032E0,-1.8179759E0,-8.298068E-2,1.6077887E1,1.18350935E1,1.9596853E1,2.5218687E1,1.1297204E1,6.986564E0,9.52396E0,1.5872006E1,3.4055683E1,2.7122343E1,3.0086985E0,5.3021216E0,5.5597606E0,7.880803E0,3.2988765E0,1.698984E0,2.0567806E0,5.7426515E0,1.3736049E1,8.55178E0,8.674867E0,4.1499343E0,1.3296073E1,5.048961E0],"categories":[],"categories_nodes":[],"categories_segments":[],"categories_sizes":[],"default_left":[0,0,0,0,0,0,0,0,0,0,0,0,0,0,0,0,0,0,0,0,0,0,0,0,0,0,0,0,0,0,0,0,0,0,0,0,0,0,0,0,0,0,0,0,0,0,0,0,0,0,0,0,0,0,0,0,0,0,0,0,0,0,0,0,0,0,0,0,0,0,0,0,0,0,0,0,0,0,0,0,0,0,0,0,0,0,0,0,0,0,0,0,0,0,0,0,0,0,0,0,0,0,0,0,0,0,0,0,0,0,0],"id":1,"left_children":[1,3,5,7,9,11,13,15,17,19,21,23,25,27,29,31,33,35,37,39,41,43,45,47,49,51,-1,53,55,57,59,-1,-1,61,-1,63,65,67,69,71,73,75,77,79,81,83,85,87,89,91,93,95,-1,97,99,101,103,105,107,-1,109,-1,-1,-1,-1,-1,-1,-1,-1,-1,-1,-1,-1,-1,-1,-1,-1,-1,-1,-1,-1,-1,-1,-1,-1,-1,-1,-1,-1,-1,-1,-1,-1,-1,-1,-1,-1,-1,-1,-1,-1,-1,-1,-1,-1,-1,-1,-1,-1,-1,-1],"loss_changes":[3.0487796E7,5.5461365E6,5.717858E6,6.00242E5,1.8953881E6,2.827082E6,7.756995E5,1.424515E5,4.14761E5,3.75604E5,1.4982688E5,4.43388E5,1.00446E5,9.2232375E4,9.527175E4,1.12585E4,1.15799E5,9.26205E4,2.844375E4,6.5428625E4,1.2446425E5,5.4397875E4,2.8927414E4,1.85992E5,1.3309E5,8.29225E4,0E0,4.0317562E4,1.8044438E4,2.1275812E4,4.309825E4,0E0,0E0,1.521875E4,0E0,3.1297E4,1.959319E4,5.12625E3,2.81275E3,5.7385625E4,6.086809E3,5.4832688E4,4.4526125E4,1.5925281E4,2.2085672E4,1.2107633E4,8.802468E3,7.360125E3,9.4213E4,2.296125E4,9.3735E3,5.684E3,0E0,8.7401875E3,1.49995625E4,7.4262734E3,2.94E3,1.01029375E4,4.9830938E3,0E0,2.3811875E3,0E0,0E0,0E0,0E0,0E0,0E0,0E0,0E0,0E0,0E0,0E0,0E0,0E0,0E0,0E0,0E0,0E0,0E0,0E0,0E0,0E0,0E0,0E0,0E0,0E0,0E0,0E0,0E0,0E0,0E0,0E0,0E0,0E0,0E0,0E0,0E0,0E0,0E0,0E0,0E0,0E0,0E0,0E0,0E0,0E0,0E0,0E0,0E0,0E0,0E0],"parents":[2147483647,0,0,1,1,2,2,3,3,4,4,5,5,6,6,7,7,8,8,9,9,10,10,11,11,12,12,13,13,14,14,15,15,16,16,17,17,18,18,19,19,20,20,21,21,22,22,23,23,24,24,25,25,27,27,28,28,29,29,30,30,33,33,35,35,36,36,37,37,38,38,39,39,40,40,41,41,42,42,43,43,44,44,45,45,46,46,47,47,48,48,49,49,50,50,51,51,53,53,54,54,55,55,56,56,57,57,58,58,60,60],"right_children":[2,4,6,8,10,12,14,16,18,20,22,24,26,28,30,32,34,36,38,40,42,44,46,48,50,52,-1,54,56,58,60,-1,-1,62,-1,64,66,68,70,72,74,76,78,80,82,84,86,88,90,92,94,96,-1,98,100,102,104,106,108,-1,110,-1,-1,-1,-1,-1,-1,-1,-1,-1,-1,-1,-1,-1,-1,-1,-1,-1,-1,-1,-1,-1,-1,-1,-1,-1,-1,-1,-1,-1,-1,-1,-1,-1,-1,-1,-1,-1,-1,-1,-1,-1,-1,-1,-1,-1,-1,-1,-1,-1,-1],"split_conditions":[2.007E3,1.194E3,1E0,8.53E2,1E0,2.813E3,2.778E3,2E0,1E0,1.554E3,4E0,7E0,3.452E3,7E0,3.292E3,1E0,1E0,3E0,3E0,1.5E1,4E0,1.438E3,5E0,2.275E3,2.361E3,2E1,3.7045708E1,2.275E3,2.619E3,2E0,5E0,-7.7322702E0,-8.819494E0,7E0,-7.3605247E0,7E0,7E0,7E0,7E0,1E0,1E0,7E0,7E0,3E0,1E1,1.649E3,1.759E3,2E0,5E0,1.5E1,1E0,5E0,1.8290155E1,1E0,3.5E-1,1.5E1,3E0,1E1,7.6E-1,1.902422E1,2.5E1,-4.7031164E0,-5.937314E0,-2.8223162E0,-4.2994437E0,-3.0420935E-1,-2.29626E0,-5.9768996E0,-6.7669654E0,-4.5912333E0,-5.5230575E0,5.2358184E0,2.066386E0,-1.1577715E0,5.3111583E-1,5.7548E0,2.968977E0,9.107168E0,5.7273974E0,-2.9439008E0,-4.4807105E0,-1.7035275E0,-3.3983128E0,-4.1716838E-1,2.127032E0,-1.8179759E0,-8.298068E-2,1.6077887E1,1.18350935E1,1.9596853E1,2.5218687E1,1.1297204E1,6.986564E0,9.52396E0,1.5872006E1,3.4055683E1,2.7122343E1,3.0086985E0,5.3021216E0,5.5597606E0,7.880803E0,3.2988765E0,1.698984E0,2.0567806E0,5.7426515E0,1.3736049E1,8.55178E0,8.674867E0,4.1499343E0,1.3296073E1,5.048961E0],"split_indices":[2,2,0,2,0,2,2,1,0,2,1,6,2,6,2,0,0,1,1,6,1,2,6,2,2,6,0,2,2,7,6,0,0,6,0,6,6,6,6,7,10,6,6,6,6,2,2,7,1,6,9,6,0,12,20,6,9,6,20,0,6,0,0,0,0,0,0,0,0,0,0,0,0,0,0,0,0,0,0,0,0,0,0,0,0,0,0,0,0,0,0,0,0,0,0,0,0,0,0,0,0,0,0,0,0,0,0,0,0,0,0],"split_type":[0,0,0,0,0,0,0,0,0,0,0,0,0,0,0,0,0,0,0,0,0,0,0,0,0,0,0,0,0,0,0,0,0,0,0,0,0,0,0,0,0,0,0,0,0,0,0,0,0,0,0,0,0,0,0,0,0,0,0,0,0,0,0,0,0,0,0,0,0,0,0,0,0,0,0,0,0,0,0,0,0,0,0,0,0,0,0,0,0,0,0,0,0,0,0,0,0,0,0,0,0,0,0,0,0,0,0,0,0,0,0],"sum_hessian":[6.425E3,5.293E3,1.132E3,3.356E3,1.937E3,5.99E2,5.33E2,1.633E3,1.723E3,9.91E2,9.46E2,4.4E2,1.59E2,3.92E2,1.41E2,6.11E2,1.022E3,8.4E2,8.83E2,4.85E2,5.06E2,7.34E2,2.12E2,2.75E2,1.65E2,9.3E1,6.6E1,2.4E2,1.52E2,6.7E1,7.4E1,3.07E2,3.04E2,4.92E2,5.3E2,6.23E2,2.17E2,6.25E2,2.58E2,4E2,8.5E1,3.11E2,1.95E2,3.04E2,4.3E2,9.5E1,1.17E2,6.2E1,2.13E2,6.6E1,9.9E1,8.2E1,1.1E1,7.8E1,1.62E2,1.24E2,2.8E1,3.9E1,2.8E1,3.7E1,3.7E1,3E2,1.92E2,3.8E2,2.43E2,1.42E2,7.5E1,3.98E2,2.27E2,1.63E2,9.5E1,6.9E1,3.31E2,4.8E1,3.7E1,1.94E2,1.17E2,1.28E2,6.7E1,1.23E2,1.81E2,3.28E2,1.02E2,2.5E1,7E1,5.3E1,6.4E1,3.6E1,2.6E1,1.52E2,6.1E1,3.4E1,3.2E1,8E0,9.1E1,4.2E1,4E1,3.8E1,4E1,5.6E1,1.06E2,5.8E1,6.6E1,4E0,2.4E1,2.6E1,1.3E1,2.2E1,6E0,3.5E1,2E0],"tree_param":{"num_deleted":"0","num_feature":"21","num_nodes":"111","size_leaf_vector":"1"}},{"base_weights":[-4.4258636E-1,-2.8441391E1,1.3422723E2,-5.0593876E1,1.0804779E1,1.01943306E2,2.2146388E2,-6.351902E1,-3.8933537E1,-4.7042203E0,2.3322176E1,7.687341E1,1.20147804E2,1.9496385E2,2.5924155E2,-7.44046E0,-5.661779E1,-4.1782585E1,-2.3466328E1,-1.1912729E1,5.2005234E0,1.7957178E1,4.0914417E1,7.329106E1,1.21136566E2,1.123824E2,1.6868503E2,1.6157611E2,2.2581435E2,2.3170999E2,2.9025892E1,-6.0162215E0,-5.461866E1,-4.852222E0,-3.8950924E1,-1.828985E1,-2.9882917E1,-2.9031061E1,-1.0090242E1,-8.537018E0,1.2019214E1,1.2642666E1,3.253816E1,2.6819368E1,5.193297E1,8.499472E1,6.0113945E1,8.0964355E1,1.489004E2,9.8070335E1,1.24688614E2,1.698728E1,4.8115625E0,2.2228876E2,1.4415384E2,2.573076E2,1.7594708E2,1.5120554E1,2.3846943E1,-4.8922777E0,-5.590616E0,-3.230095E0,-4.0591016E0,-2.7518165E0,-1.4567608E0,-3.3356178E0,-2.5415363E0,-3.013485E0,1.0871629E0,-1.3096176E0,-2.1613159E-3,3.081091E-1,-1.1176604E0,9.253716E-1,4.5766573E0,6.195268E-1,2.3246176E0,2.589687E0,4.937389E0,5.4647464E-1,3.0133626E0,3.8363328E0,5.7328715E0,8.887065E0,6.0706205E0,4.5772357E0,7.561251E0,1.5161148E0,8.556818E0,5.1302485E0,1.7304955E1,8.406058E0,1.1566793E1,8.566941E0,1.3214072E1,2.5316725E1,1.3759868E1,7.2021027E0,1.4962013E1,9.104974E0,2.6204222E1,1.0256736E1,1.9849102E1],"categories":[],"categories_nodes":[],"categories_segments":[],"categories_sizes":[],"default_left":[0,0,0,0,0,0,0,0,0,0,0,0,0,0,0,0,0,0,0,0,0,0,0,0,0,0,0,0,0,0,0,0,0,0,0,0,0,0,0,0,0,0,0,0,0,0,0,0,0,0,0,0,0,0,0,0,0,0,0,0,0,0,0,0,0,0,0,0,0,0,0,0,0,0,0,0,0,0,0,0,0,0,0,0,0,0,0,0,0,0,0,0,0,0,0,0,0,0,0,0,0,0,0],"id":2,"left_children":[1,3,5,7,9,11,13,15,17,19,21,23,25,27,29,-1,31,33,35,37,39,41,43,45,47,49,51,53,55,57,-1,-1,59,-1,61,63,65,67,69,71,73,75,77,79,81,83,85,87,89,91,93,-1,-1,95,97,99,101,-1,-1,-1,-1,-1,-1,-1,-1,-1,-1,-1,-1,-1,-1,-1,-1,-1,-1,-1,-1,-1,-1,-1,-1,-1,-1,-1,-1,-1,-1,-1,-1,-1,-1,-1,-1,-1,-1,-1,-1,-1,-1,-1,-1,-1,-1],"loss_changes":[2.407529E7,4.596196E6,3.072582E6,5.06781E5,3.7051412E5,3.57697E5,2.45786E5,1.160605E5,7.741425E4,6.096482E4,9.8933125E4,4.5192875E4,1.559295E5,1.468585E5,3.43655E4,0E0,3.6865E3,2.675575E4,8.720516E3,1.5118852E4,3.3824547E4,6.2433625E4,3.681272E4,4.393275E4,1.4712406E4,5.87505E4,7.055E2,6.209625E4,9.6071E4,9.4525E2,0E0,0E0,1.958375E3,0E0,1.0271625E4,4.992082E3,1.0608203E3,2.3976875E3,1.3558715E4,3.7144756E3,2.2068602E4,4.0601562E4,2.2872531E4,7.620547E3,7.8315625E3,1.0232375E4,3.0547E4,2.338039E3,2.1761906E4,3.736575E4,5.0615E4,0E0,0E0,1.2236375E4,1.7613875E4,1.7861E4,4.25035E4,0E0,0E0,0E0,0E0,0E0,0E0,0E0,0E0,0E0,0E0,0E0,0E0,0E0,0E0,0E0,0E0,0E0,0E0,0E0,0E0,0E0,0E0,0E0,0E0,0E0,0E0,0E0,0E0,0E0,0E0,0E0,0E0,0E0,0E0,0E0,0E0,0E0,0E0,0E0,0E0,0E0,0E0,0E0,0E0,0E0,0E0],"parents":[2147483647,0,0,1,1,2,2,3,3,4,4,5,5,6,6,7,7,8,8,9,9,10,10,11,11,12,12,13,13,14,14,16,16,17,17,18,18,19,19,20,20,21,21,22,22,23,23,24,24,25,25,26,26,27,27,28,28,29,29,32,32,34,34,35,35,36,36,37,37,38,38,39,39,40,40,41,41,42,42,43,43,44,44,45,45,46,46,47,47,48,48,49,49,50,50,53,53,54,54,55,55,56,56],"right_children":[2,4,6,8,10,12,14,16,18,20,22,24,26,28,30,-1,32,34,36,38,40,42,44,46,48,50,52,54,56,58,-1,-1,60,-1,62,64,66,68,70,72,74,76,78,80,82,84,86,88,90,92,94,-1,-1,96,98,100,102,-1,-1,-1,-1,-1,-1,-1,-1,-1,-1,-1,-1,-1,-1,-1,-1,-1,-1,-1,-1,-1,-1,-1,-1,-1,-1,-1,-1,-1,-1,-1,-1,-1,-1,-1,-1,-1,-1,-1,-1,-1,-1,-1,-1,-1,-1],"split_conditions":[2.007E3,1.213E3,2.813E3,8.53E2,1.545E3,2.382E3,3.452E3,6.5E2,1.1E3,1.407E3,4E0,5E0,5E0,1E0,6E0,-7.44046E0,7.28E2,9.41E2,2E0,1E0,4E0,8E0,5E0,2E0,1E0,1E0,2.3E1,7E0,2E0,7E0,2.9025892E1,-6.0162215E0,1E0,-4.852222E0,1E0,3E0,1E0,1.398E3,2E0,1E0,4E0,1.728E3,1.759E3,1.605E3,1E0,1.3E1,1E0,1E0,2.226E3,2.592E3,2E0,1.698728E1,4.8115625E0,4E0,2.893E3,3E0,1E0,1.5120554E1,2.3846943E1,-4.8922777E0,-5.590616E0,-3.230095E0,-4.0591016E0,-2.7518165E0,-1.4567608E0,-3.3356178E0,-2.5415363E0,-3.013485E0,1.0871629E0,-1.3096176E0,-2.1613159E-3,3.081091E-1,-1.1176604E0,9.253716E-1,4.5766573E0,6.195268E-1,2.3246176E0,2.589687E0,4.937389E0,5.4647464E-1,3.0133626E0,3.8363328E0,5.7328715E0,8.887065E0,6.0706205E0,4.5772357E0,7.561251E0,1.5161148E0,8.556818E0,5.1302485E0,1.7304955E1,8.406058E0,1.1566793E1,8.566941E0,1.3214072E1,2.5316725E1,1.3759868E1,7.2021027E0,1.4962013E1,9.104974E0,2.6204222E1,1.0256736E1,1.9849102E1],"split_indices":[2,2,2,2,2,2,2,2,2,2,3,3,3,11,9,0,2,2,7,9,9,9,9,7,11,10,4,5,7,5,0,0,7,0,7,9,18,2,8,7,3,2,2,2,11,4,11,8,2,2,4,0,0,4,2,9,12,0,0,0,0,0,0,0,0,0,0,0,0,0,0,0,0,0,0,0,0,0,0,0,0,0,0,0,0,0,0,0,0,0,0,0,0,0,0,0,0,0,0,0,0,0,0],"split_type":[0,0,0,0,0,0,0,0,0,0,0,0,0,0,0,0,0,0,0,0,0,0,0,0,0,0,0,0,0,0,0,0,0,0,0,0,0,0,0,0,0,0,0,0,0,0,0,0,0,0,0,0,0,0,0,0,0,0,0,0,0,0,0,0,0,0,0,0,0,0,0,0,0,0,0,0,0,0,0,0,0,0,0,0,0,0,0,0,0,0,0,0,0,0,0,0,0,0,0,0,0,0,0],"sum_hessian":[6.383E3,5.285E3,1.098E3,3.378E3,1.907E3,8.03E2,2.95E2,1.6E3,1.778E3,8.52E2,1.055E3,3.4E2,4.63E2,1.77E2,1.18E2,6.17E2,9.83E2,1.5E3,2.78E2,4.93E2,3.59E2,8.1E2,2.45E2,3.17E2,2.3E1,4.02E2,6.1E1,8.8E1,8.9E1,6.7E1,5.1E1,3.44E2,6.39E2,4.39E2,1.061E3,1.56E2,1.22E2,4.6E1,4.47E2,1.19E2,2.4E2,5.95E2,2.15E2,1.09E2,1.36E2,1.65E2,1.52E2,1.1E1,1.2E1,1.9E2,2.12E2,6E1,1E0,1.7E1,7.1E1,5.2E1,3.7E1,7E0,6E1,1.25E2,5.14E2,2.14E2,8.47E2,4.3E1,1.13E2,6.5E1,5.7E1,4.5E1,1E0,3.44E2,1.03E2,2.2E1,9.7E1,2.23E2,1.7E1,3.71E2,2.24E2,1.56E2,5.9E1,1.5E1,9.4E1,4.1E1,9.5E1,1.4E2,2.5E1,8.1E1,7.1E1,1E0,1E1,3E0,9E0,1.09E2,8.1E1,3.6E1,1.76E2,1.1E1,6E0,6E0,6.5E1,2E0,5E1,1E1,2.7E1],"tree_param":{"num_deleted":"0","num_feature":"21","num_nodes":"103","size_leaf_vector":"1"}},{"base_weights":[3.5115552E-1,-3.1223558E1,9.860819E1,-4.9348335E1,-5.5145955E0,1.517808E2,3.9537987E1,-3.918662E1,-5.941117E1,1.9827871E1,-3.0177496E1,1.0671019E2,2.537544E2,1.948911E1,9.157E1,-6.2002707E0,-3.2676537E1,-7.205781E0,-5.6141552E1,3.9475986E1,1.4728132E1,-2.640121E1,-4.004468E1,1.1559089E2,6.4415565E1,2.766132E2,2.0612715E2,2.9538706E1,4.0857697E0,1.03828545E2,7.027944E1,-2.8071545E1,-3.9984833E1,-5.3560112E1,-6.054787E0,4.69373E1,1.1446754E1,2.1416227E1,2.7651343E0,-1.9004269E1,-2.8259024E1,-3.674198E1,-4.5248814E1,1.3980003E2,1.0923118E2,6.954381E1,4.8561787E1,2.5754164E1,3.1689548E1,2.1736687E1,1.5872978E2,3.732719E1,1.8960226E1,6.3517923E0,-1.6826714E1,8.044965E0,1.14310684E2,1.0134909E2,5.995923E1,-2.4750667E0,-3.2170753E0,-3.7387104E0,-4.7060294E0,-5.110851E0,-5.6185875E0,2.3292956E0,4.958528E0,-5.40695E-1,2.127055E0,1.815399E0,3.798343E0,6.041806E-1,-2.3125064E0,-1.3606865E0,-2.241347E0,-3.0043771E0,-2.0506694E0,-3.6941018E0,-1.2950767E0,-4.7152295E0,-3.54802E0,1.2081749E1,1.6042562E1,1.1506961E1,9.10038E0,8.810589E0,6.41436E0,3.1399114E0,6.348167E0,1.1815186E1,1.9519705E1,3.243227E0,5.4260473E0,2.3508286E-1,2.1896214E0,-9.6915774E-2,1.2957492E0,-4.5044532E-1,-1.7886719E0,1.2787832E1,9.38074E0,2.0112312E0,1.1024667E1,6.201522E0,1.5157597E0],"categories":[],"categories_nodes":[],"categories_segments":[],"categories_sizes":[],"default_left":[0,0,0,0,0,0,0,0,0,0,0,0,0,0,0,0,0,0,0,0,0,0,0,0,0,0,0,0,0,0,0,0,0,0,0,0,0,0,0,0,0,0,0,0,0,0,0,0,0,0,0,0,0,0,0,0,0,0,0,0,0,0,0,0,0,0,0,0,0,0,0,0,0,0,0,0,0,0,0,0,0,0,0,0,0,0,0,0,0,0,0,0,0,0,0,0,0,0,0,0,0,0,0,0,0],"id":3,"left_children":[1,3,5,7,9,11,13,15,17,19,21,23,25,27,29,-1,31,-1,33,35,37,39,41,43,45,47,49,51,53,55,57,59,61,63,-1,65,67,69,71,73,75,77,79,81,83,85,87,-1,-1,-1,89,91,93,95,97,-1,99,101,103,-1,-1,-1,-1,-1,-1,-1,-1,-1,-1,-1,-1,-1,-1,-1,-1,-1,-1,-1,-1,-1,-1,-1,-1,-1,-1,-1,-1,-1,-1,-1,-1,-1,-1,-1,-1,-1,-1,-1,-1,-1,-1,-1,-1,-1,-1],"loss_changes":[1.9836964E7,2.2545525E6,4.878125E6,2.87874E5,1.2518859E6,3.73246E6,7.680849E5,2.081505E5,5.48365E4,9.841647E4,3.6762938E4,2.06274E5,2.15158E5,8.254111E4,4.6206125E4,0E0,3.59985E4,0E0,9.67875E3,4.1917125E4,6.282839E4,9.5909375E3,3.1328438E3,5.6938E4,4.8343125E3,4.5915E4,1.077975E4,2.5904344E4,1.0153171E4,2.21715E4,1.89335E4,8.460625E3,6.03375E3,1.7955E3,0E0,8.862594E3,7.3999707E3,2.6549734E4,2.4147646E4,2.4735508E3,7.5055938E3,3.5498438E2,2.6084375E2,1.742125E4,2.9542E4,1.76625E3,5.176547E3,0E0,0E0,0E0,6.5324062E3,1.3574328E4,6.7268555E3,9.297678E3,1.9372461E2,0E0,1.1927625E4,1.0793266E4,4.6788125E3,0E0,0E0,0E0,0E0,0E0,0E0,0E0,0E0,0E0,0E0,0E0,0E0,0E0,0E0,0E0,0E0,0E0,0E0,0E0,0E0,0E0,0E0,0E0,0E0,0E0,0E0,0E0,0E0,0E0,0E0,0E0,0E0,0E0,0E0,0E0,0E0,0E0,0E0,0E0,0E0,0E0,0E0,0E0,0E0,0E0,0E0],"parents":[2147483647,0,0,1,1,2,2,3,3,4,4,5,5,6,6,7,7,8,8,9,9,10,10,11,11,12,12,13,13,14,14,16,16,18,18,19,19,20,20,21,21,22,22,23,23,24,24,25,25,26,26,27,27,28,28,29,29,30,30,31,31,32,32,33,33,35,35,36,36,37,37,38,38,39,39,40,40,41,41,42,42,43,43,44,44,45,45,46,46,50,50,51,51,52,52,53,53,54,54,56,56,57,57,58,58],"right_children":[2,4,6,8,10,12,14,16,18,20,22,24,26,28,30,-1,32,-1,34,36,38,40,42,44,46,48,50,52,54,56,58,60,62,64,-1,66,68,70,72,74,76,78,80,82,84,86,88,-1,-1,-1,90,92,94,96,98,-1,100,102,104,-1,-1,-1,-1,-1,-1,-1,-1,-1,-1,-1,-1,-1,-1,-1,-1,-1,-1,-1,-1,-1,-1,-1,-1,-1,-1,-1,-1,-1,-1,-1,-1,-1,-1,-1,-1,-1,-1,-1,-1,-1,-1,-1,-1,-1,-1],"split_conditions":[4E0,3E0,1E0,1E0,1E0,5E0,5E0,2E0,2E0,1E0,1E1,1.5E1,7E0,7E0,7E0,-6.2002707E0,7E0,-7.205781E0,7E0,1.5E1,7E0,1E0,2E1,1E0,2.5E1,8E0,2E1,2E0,2.5E1,4E0,1E0,2E0,2E1,2E0,-6.054787E0,5E-2,4.4E-1,9E0,2.5E1,2E0,9E0,2.4E1,9E0,4.8E-1,7E0,1E0,1E0,2.5754164E1,3.1689548E1,2.1736687E1,4.167E-1,9E0,2E-1,1E0,7E0,8.044965E0,2E0,1E0,2.5E1,-2.4750667E0,-3.2170753E0,-3.7387104E0,-4.7060294E0,-5.110851E0,-5.6185875E0,2.3292956E0,4.958528E0,-5.40695E-1,2.127055E0,1.815399E0,3.798343E0,6.041806E-1,-2.3125064E0,-1.3606865E0,-2.241347E0,-3.0043771E0,-2.0506694E0,-3.6941018E0,-1.2950767E0,-4.7152295E0,-3.54802E0,1.2081749E1,1.6042562E1,1.1506961E1,9.10038E0,8.810589E0,6.41436E0,3.1399114E0,6.348167E0,1.1815186E1,1.9519705E1,3.243227E0,5.4260473E0,2.3508286E-1,2.1896214E0,-9.6915774E-2,1.2957492E0,-4.5044532E-1,-1.7886719E0,1.2787832E1,9.38074E0,2.0112312E0,1.1024667E1,6.201522E0,1.5157597E0],"split_indices":[1,1,0,0,0,1,1,1,1,7,6,6,6,6,6,0,6,0,6,6,6,7,6,7,6,9,6,7,6,4,7,7,6,7,0,20,20,9,6,6,9,4,9,20,6,7,17,0,0,0,20,9,20,12,5,0,7,9,6,0,0,0,0,0,0,0,0,0,0,0,0,0,0,0,0,0,0,0,0,0,0,0,0,0,0,0,0,0,0,0,0,0,0,0,0,0,0,0,0,0,0,0,0,0,0],"split_type":[0,0,0,0,0,0,0,0,0,0,0,0,0,0,0,0,0,0,0,0,0,0,0,0,0,0,0,0,0,0,0,0,0,0,0,0,0,0,0,0,0,0,0,0,0,0,0,0,0,0,0,0,0,0,0,0,0,0,0,0,0,0,0,0,0,0,0,0,0,0,0,0,0,0,0,0,0,0,0,0,0,0,0,0,0,0,0,0,0,0,0,0,0,0,0,0,0,0,0,0,0,0,0,0,0],"sum_hessian":[6.392E3,4.838E3,1.554E3,2.837E3,2.001E3,8.17E2,7.37E2,1.414E3,1.423E3,9.87E2,1.014E3,5.68E2,2.49E2,5.33E2,2.04E2,3.12E2,1.102E3,2.88E2,1.135E3,2.02E2,7.85E2,7.36E2,2.78E2,4.68E2,1E2,1.65E2,8.4E1,3.22E2,2.11E2,1.27E2,7.7E1,6.79E2,4.23E2,7.24E2,4.11E2,1.59E2,4.3E1,5.03E2,2.82E2,1.5E2,5.86E2,1.75E2,1.03E2,9.3E1,3.75E2,7.3E1,2.7E1,1.17E2,4.8E1,6.5E1,1.9E1,1.84E2,1.38E2,1.91E2,2E1,4.2E1,8.5E1,1.7E1,6E1,3.79E2,3E2,3.14E2,1.09E2,3.85E2,3.39E2,1.7E1,1.42E2,1.6E1,2.7E1,4.22E2,8.1E1,2.51E2,3.1E1,6E1,9E1,4.74E2,1.12E2,1.73E2,2E0,8.3E1,2E1,5.2E1,4.1E1,2.8E2,9.5E1,1.3E1,6E1,1.4E1,1.3E1,1.1E1,8E0,1.45E2,3.9E1,2.1E1,1.17E2,9.1E1,1E2,2E0,1.8E1,4.8E1,3.7E1,2E0,1.5E1,5.7E1,3E0],"tree_param":{"num_deleted":"0","num_feature":"21","num_nodes":"105","size_leaf_vector":"1"}},{"base_weights":[6.646364E-1,-2.3394194E1,1.1201E2,-4.1095985E1,8.236514E0,1.6325555E2,5.1455585E1,-5.0539745E1,-2.9961754E1,3.3422886E1,-1.768676E1,1.3225443E2,2.614751E2,3.169382E1,1.0097885E2,-4.3290882E1,-5.7686172E1,-1.6276035E1,-4.3330765E1,1.5137132E1,4.682932E1,-2.2792473E1,-2.1393363E0,1.5031992E2,1.0026696E2,3.0659775E2,2.2949078E2,4.0872383E1,1.6789549E1,1.1311454E2,6.9447914E1,-5.396815E1,-3.5352875E1,-6.455646E0,-5.3990154E1,-2.2137186E1,-6.8670774E0,-4.5155228E1,-3.5092743E1,2.5745611E1,8.189138E0,5.2580845E1,2.0512268E1,-1.9542448E1,-3.657421E1,1.1528615E1,-1.0883309E1,1.329299E2,1.8359671E2,7.097889E1,1.1948236E2,2.2862909E2,3.446711E1,2.012798E2,2.6279846E1,2.8155472E1,4.725461E1,1.2548259E1,3.5718975E1,9.746795E1,1.4625139E2,7.806768E1,2.7252426E1,-5.94766E0,-4.9990687E0,-3.1372468E0,-4.1632776E0,-5.181792E0,-5.7384477E0,-1.7490771E0,-2.9301097E0,4.2248484E-2,-1.8407277E0,-4.1147056E0,-4.806236E0,-3.14506E0,-4.0139303E0,1.7380756E0,3.7221963E0,-5.389526E-1,1.2647363E0,4.5711856E0,6.9348845E0,1.4383031E0,3.1659315E0,-2.6774035E0,-1.4180065E0,-3.9344285E0,-2.832363E0,-1.6537258E-2,2.1120994E0,-5.797247E-1,-2.1040304E0,1.4562678E1,1.1612127E1,1.3108716E1,1.9062052E1,1.1066134E1,6.185941E0,1.4681932E1,1.0931899E1,2.4999334E1,1.4713523E1,2.0321192E1,5.040512E0,1.4342765E0,3.8053062E0,3.3047798E0,5.4034014E0,1.9737576E0,6.367037E-1,4.5698E0,1.7956854E0,8.042875E0,1.0963634E1,9.366321E0,1.5722956E1,5.887506E0,9.398947E0,3.4795055E0,5.6881208E-2],"categories":[],"categories_nodes":[],"categories_segments":[],"categories_sizes":[],"default_left":[0,0,0,0,0,0,0,0,0,0,0,0,0,0,0,0,0,0,0,0,0,0,0,0,0,0,0,0,0,0,0,0,0,0,0,0,0,0,0,0,0,0,0,0,0,0,0,0,0,0,0,0,0,0,0,0,0,0,0,0,0,0,0,0,0,0,0,0,0,0,0,0,0,0,0,0,0,0,0,0,0,0,0,0,0,0,0,0,0,0,0,0,0,0,0,0,0,0,0,0,0,0,0,0,0,0,0,0,0,0,0,0,0,0,0,0,0,0,0,0,0],"id":4,"left_children":[1,3,5,7,9,11,13,15,17,19,21,23,25,27,29,31,33,35,37,39,41,43,45,47,49,51,53,55,57,59,61,63,65,-1,67,69,71,73,75,77,79,81,83,85,87,89,91,93,95,97,99,101,-1,103,-1,105,107,109,111,113,115,117,119,-1,-1,-1,-1,-1,-1,-1,-1,-1,-1,-1,-1,-1,-1,-1,-1,-1,-1,-1,-1,-1,-1,-1,-1,-1,-1,-1,-1,-1,-1,-1,-1,-1,-1,-1,-1,-1,-1,-1,-1,-1,-1,-1,-1,-1,-1,-1,-1,-1,-1,-1,-1,-1,-1,-1,-1,-1,-1],"loss_changes":[1.7187374E7,2.9544775E6,3.529183E6,3.54205E5,1.2372086E6,1.844132E6,5.0962112E5,9.2251E4,2.8380462E5,2.3487725E5,7.409278E4,2.571045E5,1.41791E5,5.07505E4,4.9159125E4,7.538975E4,1.9825E4,4.231142E4,1.0229E4,2.986189E4,8.27765E4,3.0773312E4,2.78523E4,1.486205E5,8.8880375E4,9.33725E4,3.1672E4,1.7499156E4,1.1193137E4,4.0704125E4,1.38759375E4,5.505875E3,1.18420625E4,0E0,1.472625E3,1.5265297E4,2.4992305E4,5.479875E3,1.4395E3,1.4808727E4,1.5081275E4,4.912125E4,6.445254E3,2.1762875E4,1.9252969E3,1.0211247E4,7.213617E3,2.5773E4,1.189375E4,1.8848281E4,1.2567E4,1.520375E3,0E0,5.20675E3,0E0,1.0391219E4,1.2950281E4,5.2069805E3,3.787871E3,6.7325E3,3.7476875E3,5.4672656E3,1.7915903E3,0E0,0E0,0E0,0E0,0E0,0E0,0E0,0E0,0E0,0E0,0E0,0E0,0E0,0E0,0E0,0E0,0E0,0E0,0E0,0E0,0E0,0E0,0E0,0E0,0E0,0E0,0E0,0E0,0E0,0E0,0E0,0E0,0E0,0E0,0E0,0E0,0E0,0E0,0E0,0E0,0E0,0E0,0E0,0E0,0E0,0E0,0E0,0E0,0E0,0E0,0E0,0E0,0E0,0E0,0E0,0E0,0E0,0E0],"parents":[2147483647,0,0,1,1,2,2,3,3,4,4,5,5,6,6,7,7,8,8,9,9,10,10,11,11,12,12,13,13,14,14,15,15,16,16,17,17,18,18,19,19,20,20,21,21,22,22,23,23,24,24,25,25,26,26,27,27,28,28,29,29,30,30,31,31,32,32,34,34,35,35,36,36,37,37,38,38,39,39,40,40,41,41,42,42,43,43,44,44,45,45,46,46,47,47,48,48,49,49,50,50,51,51,53,53,55,55,56,56,57,57,58,58,59,59,60,60,61,61,62,62],"right_children":[2,4,6,8,10,12,14,16,18,20,22,24,26,28,30,32,34,36,38,40,42,44,46,48,50,52,54,56,58,60,62,64,66,-1,68,70,72,74,76,78,80,82,84,86,88,90,92,94,96,98,100,102,-1,104,-1,106,108,110,112,114,116,118,120,-1,-1,-1,-1,-1,-1,-1,-1,-1,-1,-1,-1,-1,-1,-1,-1,-1,-1,-1,-1,-1,-1,-1,-1,-1,-1,-1,-1,-1,-1,-1,-1,-1,-1,-1,-1,-1,-1,-1,-1,-1,-1,-1,-1,-1,-1,-1,-1,-1,-1,-1,-1,-1,-1,-1,-1,-1,-1],"split_conditions":[2.007E3,1.213E3,1E0,8.96E2,1E0,2.893E3,2.778E3,1E0,1E0,1.527E3,4E0,7E0,3E0,7E0,1E1,6.79E2,6.61E2,1.053E3,1.1E3,3E0,1.5E1,1.5E1,3E0,2.592E3,2.382E3,5E0,3.576E3,2.275E3,2.619E3,3.576E3,9.2E-1,4.72E2,7E0,-6.455646E0,7E0,7E0,7E0,3E0,7E0,1.398E3,3E0,1.759E3,4E0,1.475E3,1.612E3,1.753E3,1.5E1,2E0,1E0,1E0,1E0,6.8E-1,3.446711E1,2E1,2.6279846E1,5E0,3.5E-1,1.5E1,1E1,5E0,3E0,3.384E3,2.5E1,-5.94766E0,-4.9990687E0,-3.1372468E0,-4.1632776E0,-5.181792E0,-5.7384477E0,-1.7490771E0,-2.9301097E0,4.2248484E-2,-1.8407277E0,-4.1147056E0,-4.806236E0,-3.14506E0,-4.0139303E0,1.7380756E0,3.7221963E0,-5.389526E-1,1.2647363E0,4.5711856E0,6.9348845E0,1.4383031E0,3.1659315E0,-2.6774035E0,-1.4180065E0,-3.9344285E0,-2.832363E0,-1.6537258E-2,2.1120994E0,-5.797247E-1,-2.1040304E0,1.4562678E1,1.1612127E1,1.3108716E1,1.9062052E1,1.1066134E1,6.185941E0,1.4681932E1,1.0931899E1,2.4999334E1,1.4713523E1,2.0321192E1,5.040512E0,1.4342765E0,3.8053062E0,3.3047798E0,5.4034014E0,1.9737576E0,6.367037E-1,4.5698E0,1.7956854E0,8.042875E0,1.0963634E1,9.366321E0,1.5722956E1,5.887506E0,9.398947E0,3.4795055E0,5.6881208E-2],"split_indices":[2,2,0,2,0,2,2,0,0,2,1,6,6,6,6,2,2,2,2,6,6,6,6,2,2,3,2,2,2,2,20,2,6,0,6,6,6,6,6,2,9,2,1,2,2,2,6,7,9,7,7,20,0,4,0,9,20,6,4,9,9,2,6,0,0,0,0,0,0,0,0,0,0,0,0,0,0,0,0,0,0,0,0,0,0,0,0,0,0,0,0,0,0,0,0,0,0,0,0,0,0,0,0,0,0,0,0,0,0,0,0,0,0,0,0,0,0,0,0,0,0],"split_type":[0,0,0,0,0,0,0,0,0,0,0,0,0,0,0,0,0,0,0,0,0,0,0,0,0,0,0,0,0,0,0,0,0,0,0,0,0,0,0,0,0,0,0,0,0,0,0,0,0,0,0,0,0,0,0,0,0,0,0,0,0,0,0,0,0,0,0,0,0,0,0,0,0,0,0,0,0,0,0,0,0,0,0,0,0,0,0,0,0,0,0,0,0,0,0,0,0,0,0,0,0,0,0,0,0,0,0,0,0,0,0,0,0,0,0,0,0,0,0,0,0],"sum_hessian":[6.414E3,5.275E3,1.139E3,3.382E3,1.893E3,6.16E2,5.23E2,1.828E3,1.554E3,9.6E2,9.33E2,4.7E2,1.46E2,3.75E2,1.48E2,9.11E2,9.17E2,7.69E2,7.85E2,4.07E2,5.53E2,7.02E2,2.31E2,2.98E2,1.72E2,5.7E1,8.9E1,2.31E2,1.44E2,1.05E2,4.3E1,3.86E2,5.25E2,3.15E2,6.02E2,4.73E2,2.96E2,6.39E2,1.46E2,1.6E2,2.47E2,4.53E2,1E2,5.7E2,1.32E2,9E1,1.41E2,1.99E2,9.9E1,7E1,1.02E2,2.1E1,3.6E1,5.2E1,3.7E1,7.9E1,1.52E2,1.19E2,2.5E1,7.4E1,3.1E1,3.5E1,8E0,1.56E2,2.3E2,3.25E2,2E2,3.77E2,2.25E2,2.89E2,1.84E2,1.82E2,1.14E2,2.75E2,3.64E2,8.9E1,5.7E1,9.4E1,6.6E1,6.1E1,1.86E2,3.24E2,1.29E2,6.6E1,3.4E1,2.41E2,3.29E2,9.6E1,3.6E1,4.1E1,4.9E1,9.5E1,4.6E1,1.09E2,9E1,1.4E1,8.5E1,1.1E1,5.9E1,2.4E1,7.8E1,1.5E1,6E0,5.1E1,1E0,3.4E1,4.5E1,5.1E1,1.01E2,5.4E1,6.5E1,1.5E1,1E1,3.4E1,4E1,7E0,2.4E1,1.8E1,1.7E1,6E0,2E0],"tree_param":{"num_deleted":"0","num_feature":"21","num_nodes":"121","size_leaf_vector":"1"}},{"base_weights":[-4.6146178E-1,-2.1363663E1,9.9486404E1,-3.649431E1,8.6636505E0,1.4902676E2,4.5878548E1,-4.5453007E1,-2.6463606E1,3.1686638E1,-1.5343908E1,1.1966186E2,2.3669832E2,2.7889294E1,8.411356E1,-3.8684856E1,-5.1938503E1,-1.36818695E1,-3.8230583E1,1.9564348E1,4.50825E1,-2.0190346E1,-4.0692225E0,9.488519E1,1.4215495E2,2.843381E2,1.982602E2,3.753603E1,1.1865225E1,6.079211E1,9.682125E1,-5.0781414E1,-3.2642517E1,-5.802565E0,-4.887557E1,-1.7393045E1,1.4589467E0,-4.1406498E1,-3.341661E1,2.3455881E1,-1.8651953E-1,5.5122715E1,2.714504E1,-1.3782584E1,-2.5223522E1,1.8258866E0,-1.4928249E1,1.0621194E2,5.219394E1,1.2895485E2,1.7155586E2,1.5020746E1,2.9867823E1,2.107156E2,1.2182163E2,1.676191E1,4.2694534E1,2.960962E0,1.8204563E1,7.74909E1,4.326319E1,1.08923256E2,7.409298E1,-5.390519E0,-4.6737094E0,-2.9724224E0,-4.023033E0,-4.772012E0,-5.3475223E0,-1.0019661E0,-2.1854608E0,8.177585E-1,-1.0067179E0,-3.964953E0,-4.884925E0,-3.04689E0,-3.7962766E0,4.516176E0,1.9122418E0,-1.1355519E0,5.7176036E-1,4.6656213E0,7.2101755E0,3.5738106E0,1.6233187E0,-2.6194817E-1,-1.6944512E0,-3.1973236E0,-2.096557E0,-6.4822495E-1,1.1461271E0,-1.9218391E0,-5.278339E-1,1.1728633E1,8.868984E0,4.252828E0,6.618074E0,1.3923708E1,1.0492181E1,1.8824947E1,1.3143554E1,1.6170507E1,2.2580376E1,3.1582453E0,1.3422963E1,5.805643E-1,3.0050352E0,3.1526525E0,4.8776965E0,1.0555995E0,-2.934091E-1,3.404736E0,1.4955853E0,5.1242847E0,8.936519E0,1.1206685E0,4.8587327E0,8.385459E0,1.2833794E1,7.722515E0,2.581406E0],"categories":[],"categories_nodes":[],"categories_segments":[],"categories_sizes":[],"default_left":[0,0,0,0,0,0,0,0,0,0,0,0,0,0,0,0,0,0,0,0,0,0,0,0,0,0,0,0,0,0,0,0,0,0,0,0,0,0,0,0,0,0,0,0,0,0,0,0,0,0,0,0,0,0,0,0,0,0,0,0,0,0,0,0,0,0,0,0,0,0,0,0,0,0,0,0,0,0,0,0,0,0,0,0,0,0,0,0,0,0,0,0,0,0,0,0,0,0,0,0,0,0,0,0,0,0,0,0,0,0,0,0,0,0,0,0,0,0,0,0,0],"id":5,"left_children":[1,3,5,7,9,11,13,15,17,19,21,23,25,27,29,31,33,35,37,39,41,43,45,47,49,51,53,55,57,59,61,63,65,-1,67,69,71,73,75,77,79,81,83,85,87,89,91,93,95,97,99,-1,-1,101,103,105,107,109,111,113,115,117,119,-1,-1,-1,-1,-1,-1,-1,-1,-1,-1,-1,-1,-1,-1,-1,-1,-1,-1,-1,-1,-1,-1,-1,-1,-1,-1,-1,-1,-1,-1,-1,-1,-1,-1,-1,-1,-1,-1,-1,-1,-1,-1,-1,-1,-1,-1,-1,-1,-1,-1,-1,-1,-1,-1,-1,-1,-1,-1],"loss_changes":[1.3443591E7,2.4182748E6,2.949015E6,3.168185E5,9.8654894E5,1.459718E6,3.663255E5,7.99865E4,2.5094988E5,1.4705388E5,4.7675016E4,2.289385E5,2.07318E5,5.6130875E4,4.4791875E4,6.5440375E4,1.4895E4,4.5146125E4,1.1917375E4,3.6897734E4,7.630519E4,1.9357953E4,1.6927256E4,9.6002375E4,6.55865E4,7.439E4,5.33525E4,2.3717594E4,7.792248E3,1.5088344E4,2.1910812E4,1.32125E3,1.24224375E4,0E0,8.4425E2,2.0999453E4,1.2395264E4,4.8630625E3,3.547E3,3.6855125E4,5.340378E3,3.6311875E4,1.4141164E4,9.521082E3,9.129984E3,1.3843254E4,3.748711E3,2.1615625E4,3.4042656E3,2.4929E4,2.0130625E4,0E0,0E0,1.524975E4,1.1436328E4,6.6683496E3,1.082525E4,2.6725864E3,3.659752E3,5.0826562E3,5.087711E3,2.2820562E4,4.2064688E3,0E0,0E0,0E0,0E0,0E0,0E0,0E0,0E0,0E0,0E0,0E0,0E0,0E0,0E0,0E0,0E0,0E0,0E0,0E0,0E0,0E0,0E0,0E0,0E0,0E0,0E0,0E0,0E0,0E0,0E0,0E0,0E0,0E0,0E0,0E0,0E0,0E0,0E0,0E0,0E0,0E0,0E0,0E0,0E0,0E0,0E0,0E0,0E0,0E0,0E0,0E0,0E0,0E0,0E0,0E0,0E0,0E0,0E0],"parents":[2147483647,0,0,1,1,2,2,3,3,4,4,5,5,6,6,7,7,8,8,9,9,10,10,11,11,12,12,13,13,14,14,15,15,16,16,17,17,18,18,19,19,20,20,21,21,22,22,23,23,24,24,25,25,26,26,27,27,28,28,29,29,30,30,31,31,32,32,34,34,35,35,36,36,37,37,38,38,39,39,40,40,41,41,42,42,43,43,44,44,45,45,46,46,47,47,48,48,49,49,50,50,53,53,54,54,55,55,56,56,57,57,58,58,59,59,60,60,61,61,62,62],"right_children":[2,4,6,8,10,12,14,16,18,20,22,24,26,28,30,32,34,36,38,40,42,44,46,48,50,52,54,56,58,60,62,64,66,-1,68,70,72,74,76,78,80,82,84,86,88,90,92,94,96,98,100,-1,-1,102,104,106,108,110,112,114,116,118,120,-1,-1,-1,-1,-1,-1,-1,-1,-1,-1,-1,-1,-1,-1,-1,-1,-1,-1,-1,-1,-1,-1,-1,-1,-1,-1,-1,-1,-1,-1,-1,-1,-1,-1,-1,-1,-1,-1,-1,-1,-1,-1,-1,-1,-1,-1,-1,-1,-1,-1,-1,-1,-1,-1,-1,-1,-1,-1],"split_conditions":[1.975E3,1.264E3,1E0,8.99E2,1E0,2.893E3,2.778E3,1E0,1E0,1.605E3,1.695E3,2.444E3,3E0,7E0,3.197E3,5.9E2,6.61E2,1.117E3,3E0,1.5E1,7E0,3E0,7E0,1.5E1,5E0,3.096E3,2E1,2.178E3,2.343E3,5E0,7E0,4.72E2,1E1,-5.802565E0,1.5E1,3E0,7E0,1.5E1,7E0,1E0,1.398E3,7E0,2E0,1E0,1.438E3,4E0,1.803E3,2E0,6E0,7E0,7E0,1.5020746E1,2.9867823E1,4E0,1E1,6E0,3.5E-1,1.5E1,1E0,1E0,1.333E-1,1E0,1E0,-5.390519E0,-4.6737094E0,-2.9724224E0,-4.023033E0,-4.772012E0,-5.3475223E0,-1.0019661E0,-2.1854608E0,8.177585E-1,-1.0067179E0,-3.964953E0,-4.884925E0,-3.04689E0,-3.7962766E0,4.516176E0,1.9122418E0,-1.1355519E0,5.7176036E-1,4.6656213E0,7.2101755E0,3.5738106E0,1.6233187E0,-2.6194817E-1,-1.6944512E0,-3.1973236E0,-2.096557E0,-6.4822495E-1,1.1461271E0,-1.9218391E0,-5.278339E-1,1.1728633E1,8.868984E0,4.252828E0,6.618074E0,1.3923708E1,1.0492181E1,1.8824947E1,1.3143554E1,1.6170507E1,2.2580376E1,3.1582453E0,1.3422963E1,5.805643E-1,3.0050352E0,3.1526525E0,4.8776965E0,1.0555995E0,-2.934091E-1,3.404736E0,1.4955853E0,5.1242847E0,8.936519E0,1.1206685E0,4.8587327E0,8.385459E0,1.2833794E1,7.722515E0,2.581406E0],"split_indices":[2,2,0,2,0,2,2,0,0,2,2,2,6,6,2,2,2,2,1,6,6,6,6,6,1,2,6,2,2,6,6,2,6,0,6,6,6,6,6,7,2,9,7,7,2,1,2,7,9,6,6,0,0,9,5,9,20,6,7,15,20,18,20,0,0,0,0,0,0,0,0,0,0,0,0,0,0,0,0,0,0,0,0,0,0,0,0,0,0,0,0,0,0,0,0,0,0,0,0,0,0,0,0,0,0,0,0,0,0,0,0,0,0,0,0,0,0,0,0,0,0],"split_type":[0,0,0,0,0,0,0,0,0,0,0,0,0,0,0,0,0,0,0,0,0,0,0,0,0,0,0,0,0,0,0,0,0,0,0,0,0,0,0,0,0,0,0,0,0,0,0,0,0,0,0,0,0,0,0,0,0,0,0,0,0,0,0,0,0,0,0,0,0,0,0,0,0,0,0,0,0,0,0,0,0,0,0,0,0,0,0,0,0,0,0,0,0,0,0,0,0,0,0,0,0,0,0,0,0,0,0,0,0,0,0,0,0,0,0,0,0,0,0,0,0],"sum_hessian":[6.433E3,5.321E3,1.112E3,3.538E3,1.783E3,5.77E2,5.35E2,1.867E3,1.671E3,9.1E2,8.73E2,4.34E2,1.43E2,3.65E2,1.7E2,9.17E2,9.5E2,8.02E2,8.69E2,4.79E2,4.31E2,6.1E2,2.63E2,2.09E2,2.25E2,6.1E1,8.2E1,2.27E2,1.38E2,6.2E1,1.08E2,3.03E2,6.14E2,3.12E2,6.38E2,6.44E2,1.58E2,5.19E2,3.5E2,4E2,7.9E1,2.75E2,1.56E2,2.7E2,3.4E2,1.71E2,9.2E1,1.64E2,4.5E1,1.59E2,6.6E1,7E0,5.4E1,6.9E1,1.3E1,4.6E1,1.81E2,5.8E1,8E1,3E1,3.2E1,6.8E1,4E1,1.64E2,1.39E2,4.47E2,1.67E2,5.19E2,1.19E2,2.44E2,4E2,1E2,5.8E1,4.25E2,9.4E1,2.17E2,1.33E2,6.5E1,3.35E2,2.7E1,5.2E1,1.86E2,8.9E1,8.6E1,7E1,6E1,2.1E2,1.29E2,2.11E2,9.2E1,7.9E1,6.3E1,2.9E1,9.7E1,6.7E1,2.9E1,1.6E1,1.08E2,5.1E1,4.4E1,2.2E1,1.9E1,5E1,2E0,1.1E1,2.6E1,2E1,6.6E1,1.15E2,2.5E1,3.3E1,1.2E1,6.8E1,1.1E1,1.9E1,5E0,2.7E1,3.2E1,3.6E1,3.7E1,3E0],"tree_param":{"num_deleted":"0","num_feature":"21","num_nodes":"121","size_leaf_vector":"1"}},{"base_weights":[2.475677E-1,-1.738609E1,8.4126366E1,-2.9390806E1,1.0719435E1,1.2511793E2,3.8376957E1,-1.9437302E1,-3.90476E1,3.357829E1,-1.2443883E1,1.0210362E2,1.9238245E2,2.4554241E1,7.7446175E1,-3.3488052E1,-9.638556E0,-4.615919E1,-3.423166E1,4.3483704E1,1.7991121E1,-1.0421087E1,-2.1623184E1,1.10751526E2,6.378123E1,2.215889E2,1.5758687E2,4.4270195E1,1.8997345E1,8.635732E1,5.1957726E1,-3.0968426E1,-3.9765736E1,-5.331761E0,-1.7774717E1,-4.492159E0,-5.0735106E0,-3.008839E1,-3.7103268E1,6.2500523E1,3.7352753E1,2.1696102E1,-7.6525292E0,-1.5448189E0,-1.26328745E1,-2.7860981E1,-1.6795246E1,9.3768326E1,1.2107223E2,7.834765E1,3.933673E1,2.99081E2,2.0440243E1,1.701324E2,1.1429736E2,4.808854E1,6.6832333E0,3.0192583E1,1.1907209E1,4.17733E0,8.926393E1,1.1796553E1,5.9119305E1,-3.1809976E0,-2.62306E0,-3.9935365E0,-1.4693215E0,-6.6384576E-2,-1.0725669E0,-1.5904429E0,-3.379503E0,-3.3671262E0,-2.655952E0,-3.5544221E0,-4.0290008E0,2.6156778E0,6.6404986E0,3.1374204E0,5.560408E0,1.3983289E0,2.9534795E0,-2.388403E0,2.0061262E-1,-4.9718714E-1,1.1117011E0,-1.4374691E0,-4.3209144E-1,-3.09322E0,-1.8976345E0,-1.3124171E0,-2.8277013E0,8.037898E0,1.3275368E1,1.521035E1,1.1302485E1,9.378013E0,5.854667E0,2.222147E0,5.839361E0,3.298065E1,1.5517825E1,8.783149E0,1.7505836E1,1.2833953E1,2.955439E0,3.9465504E0,6.5486674E0,-1.0128058E0,2.215788E0,2.365334E0,4.283225E0,1.5296657E0,-5.200287E-1,9.90676E0,7.3797374E0,2.313769E0,-1.1037526E0,6.502421E0,1.4227997E0],"categories":[],"categories_nodes":[],"categories_segments":[],"categories_sizes":[],"default_left":[0,0,0,0,0,0,0,0,0,0,0,0,0,0,0,0,0,0,0,0,0,0,0,0,0,0,0,0,0,0,0,0,0,0,0,0,0,0,0,0,0,0,0,0,0,0,0,0,0,0,0,0,0,0,0,0,0,0,0,0,0,0,0,0,0,0,0,0,0,0,0,0,0,0,0,0,0,0,0,0,0,0,0,0,0,0,0,0,0,0,0,0,0,0,0,0,0,0,0,0,0,0,0,0,0,0,0,0,0,0,0,0,0,0,0,0,0,0,0],"id":6,"left_children":[1,3,5,7,9,11,13,15,17,19,21,23,25,27,29,31,33,35,37,39,41,43,45,47,49,51,53,55,57,59,61,63,65,67,69,-1,-1,71,73,75,77,79,81,83,85,87,89,91,93,95,97,99,-1,101,103,105,107,109,111,-1,113,115,117,-1,-1,-1,-1,-1,-1,-1,-1,-1,-1,-1,-1,-1,-1,-1,-1,-1,-1,-1,-1,-1,-1,-1,-1,-1,-1,-1,-1,-1,-1,-1,-1,-1,-1,-1,-1,-1,-1,-1,-1,-1,-1,-1,-1,-1,-1,-1,-1,-1,-1,-1,-1,-1,-1,-1,-1],"loss_changes":[9.451368E6,1.7817808E6,2.0768255E6,3.5488125E5,8.375366E5,8.85964E5,2.8216075E5,2.5080512E5,6.270525E4,1.22118E5,1.4368984E4,1.38093E5,1.154865E5,4.1887203E4,2.663E4,1.06158125E4,3.76091E4,1.996625E3,1.2244875E4,5.432875E4,2.9713906E4,1.2663023E4,3.7783828E3,5.10465E4,2.6471781E4,4.274875E4,1.9113875E4,1.1877797E4,2.3929469E4,9.23E3,1.0232055E4,1.3146562E3,3.1059375E2,1.7743584E4,1.0608602E4,0E0,0E0,4.9849062E3,1.8420625E3,1.48656875E4,3.8628594E4,1.603168E4,6.3188936E3,5.696331E3,7.4229766E3,1.0502227E3,3.0852207E3,6.1885625E4,3.724725E4,1.0094E4,9.465805E3,1.879125E3,0E0,6.111E3,1.8816531E4,8.967422E3,2.5657551E3,8.740023E3,1.1038703E4,0E0,6.7905625E3,2.0681335E3,7.5573594E3,0E0,0E0,0E0,0E0,0E0,0E0,0E0,0E0,0E0,0E0,0E0,0E0,0E0,0E0,0E0,0E0,0E0,0E0,0E0,0E0,0E0,0E0,0E0,0E0,0E0,0E0,0E0,0E0,0E0,0E0,0E0,0E0,0E0,0E0,0E0,0E0,0E0,0E0,0E0,0E0,0E0,0E0,0E0,0E0,0E0,0E0,0E0,0E0,0E0,0E0,0E0,0E0,0E0,0E0,0E0,0E0],"parents":[2147483647,0,0,1,1,2,2,3,3,4,4,5,5,6,6,7,7,8,8,9,9,10,10,11,11,12,12,13,13,14,14,15,15,16,16,17,17,18,18,19,19,20,20,21,21,22,22,23,23,24,24,25,25,26,26,27,27,28,28,29,29,30,30,31,31,32,32,33,33,34,34,37,37,38,38,39,39,40,40,41,41,42,42,43,43,44,44,45,45,46,46,47,47,48,48,49,49,50,50,51,51,53,53,54,54,55,55,56,56,57,57,58,58,60,60,61,61,62,62],"right_children":[2,4,6,8,10,12,14,16,18,20,22,24,26,28,30,32,34,36,38,40,42,44,46,48,50,52,54,56,58,60,62,64,66,68,70,-1,-1,72,74,76,78,80,82,84,86,88,90,92,94,96,98,100,-1,102,104,106,108,110,112,-1,114,116,118,-1,-1,-1,-1,-1,-1,-1,-1,-1,-1,-1,-1,-1,-1,-1,-1,-1,-1,-1,-1,-1,-1,-1,-1,-1,-1,-1,-1,-1,-1,-1,-1,-1,-1,-1,-1,-1,-1,-1,-1,-1,-1,-1,-1,-1,-1,-1,-1,-1,-1,-1,-1,-1,-1,-1,-1],"split_conditions":[4E0,3E0,1E0,1E0,1E0,5E0,5E0,2E0,2E0,7E0,1.5E1,1.5E1,5E0,1E0,1E1,1E1,7E0,1.5E1,3E0,1E0,2.5E1,1E0,1E0,3.5E-1,2E0,1E0,5.5E-1,2.5E1,3E0,1E0,6.67E-2,9E0,2.5E1,2E0,2.5E1,-4.492159E0,-5.0735106E0,1E0,1.5E1,5E-2,8E0,1E0,4E0,1.2E1,9E0,8E0,2.5E1,9E0,1E0,2E1,4E0,3E0,2.0440243E1,7E0,2E1,7E0,1E0,8E0,2E1,4.17733E0,2E0,1.5E1,9.2E-1,-3.1809976E0,-2.62306E0,-3.9935365E0,-1.4693215E0,-6.6384576E-2,-1.0725669E0,-1.5904429E0,-3.379503E0,-3.3671262E0,-2.655952E0,-3.5544221E0,-4.0290008E0,2.6156778E0,6.6404986E0,3.1374204E0,5.560408E0,1.3983289E0,2.9534795E0,-2.388403E0,2.0061262E-1,-4.9718714E-1,1.1117011E0,-1.4374691E0,-4.3209144E-1,-3.09322E0,-1.8976345E0,-1.3124171E0,-2.8277013E0,8.037898E0,1.3275368E1,1.521035E1,1.1302485E1,9.378013E0,5.854667E0,2.222147E0,5.839361E0,3.298065E1,1.5517825E1,8.783149E0,1.7505836E1,1.2833953E1,2.955439E0,3.9465504E0,6.5486674E0,-1.0128058E0,2.215788E0,2.365334E0,4.283225E0,1.5296657E0,-5.200287E-1,9.90676E0,7.3797374E0,2.313769E0,-1.1037526E0,6.502421E0,1.4227997E0],"split_indices":[3,3,0,0,0,3,3,3,3,6,6,6,6,7,6,6,6,6,6,7,6,7,15,20,7,7,20,6,6,9,20,9,4,7,6,0,0,13,6,20,9,17,4,4,9,4,6,9,6,6,9,6,0,5,6,9,13,9,6,0,7,6,20,0,0,0,0,0,0,0,0,0,0,0,0,0,0,0,0,0,0,0,0,0,0,0,0,0,0,0,0,0,0,0,0,0,0,0,0,0,0,0,0,0,0,0,0,0,0,0,0,0,0,0,0,0,0,0,0],"split_type":[0,0,0,0,0,0,0,0,0,0,0,0,0,0,0,0,0,0,0,0,0,0,0,0,0,0,0,0,0,0,0,0,0,0,0,0,0,0,0,0,0,0,0,0,0,0,0,0,0,0,0,0,0,0,0,0,0,0,0,0,0,0,0,0,0,0,0,0,0,0,0,0,0,0,0,0,0,0,0,0,0,0,0,0,0,0,0,0,0,0,0,0,0,0,0,0,0,0,0,0,0,0,0,0,0,0,0,0,0,0,0,0,0,0,0,0,0,0,0],"sum_hessian":[6.388E3,5.279E3,1.109E3,3.699E3,1.58E3,5.84E2,5.25E2,1.823E3,1.876E3,7.95E2,7.85E2,4.37E2,1.47E2,3.89E2,1.36E2,7.48E2,1.075E3,7.54E2,1.122E3,4.85E2,3.1E2,6.45E2,1.4E2,3.55E2,8.2E1,7.7E1,7E1,8.4E1,3.05E2,9.9E1,3.7E1,5.38E2,2.1E2,7.04E2,3.71E2,6.02E2,1.52E2,4.64E2,6.58E2,1.16E2,3.69E2,2.71E2,3.9E1,1.29E2,5.16E2,5.9E1,8.1E1,1.38E2,2.17E2,5E1,3.2E1,1.1E1,6.6E1,5.2E1,1.8E1,7.6E1,8E0,1.17E2,1.88E2,7E0,9.2E1,6E0,3.1E1,4.52E2,8.6E1,2.08E2,2E0,3.78E2,3.26E2,3.34E2,3.7E1,2.26E2,2.38E2,4.5E2,2.08E2,1.2E1,1.04E2,2.8E2,8.9E1,1.38E2,1.33E2,1.4E1,2.5E1,1.02E2,2.7E1,4.26E2,9E1,4.2E1,1.7E1,6.3E1,1.8E1,1.05E2,3.3E1,4.1E1,1.76E2,2.6E1,2.4E1,1.8E1,1.4E1,8E0,3E0,4E0,4.8E1,1.5E1,3E0,5.3E1,2.3E1,4E0,4E0,7.9E1,3.8E1,1.57E2,3.1E1,5.3E1,3.9E1,4E0,2E0,2.7E1,4E0],"tree_param":{"num_deleted":"0","num_feature":"21","num_nodes":"119","size_leaf_vector":"1"}},{"base_weights":[2.7854103E-1,-1.7303415E1,8.291505E1,-2.999251E1,7.2618546E0,6.3504543E1,1.392411E2,-3.6749317E1,-2.0469507E1,-4.6030064E0,1.2276959E1,4.290008E1,7.7991234E1,1.2630475E2,1.917478E2,-4.361238E1,-3.250813E1,-1.7422518E1,-2.4395313E1,-7.4449453E0,2.5783634E0,2.5429495E1,8.846165E0,5.233929E1,3.2768394E1,8.726674E1,6.457984E1,1.1612159E2,1.7738475E2,1.2018116E2,2.0690808E2,-4.683582E0,-4.039277E1,-3.4820454E1,-3.0444939E1,-2.2543068E1,-1.40731E1,-2.6093552E1,-1.9000774E1,-1.1707787E1,-3.983947E0,-5.8797894E0,1.1003031E1,1.847013E1,3.363722E1,3.0230284E0,1.4898936E1,4.629828E1,6.699914E1,2.0065155E1,4.3206966E1,6.7158646E1,9.712709E1,4.320656E1,6.842933E1,1.0194069E2,1.4115631E2,2.2550748E2,1.2998137E2,1.8561885E2,7.774428E0,1.7004137E2,2.3918869E1,-3.583475E0,-4.141564E0,-3.6115131E0,-2.8908148E0,-3.2396207E0,-2.8058374E0,-2.601118E0,-1.6297524E0,-1.7163543E0,-1.0720177E0,-2.8305702E0,-2.3837745E0,-2.536609E0,-1.2391862E0,-1.3052386E0,-1.9467776E-1,2.3403831E-1,-7.343524E-1,-1.6249945E0,-2.6707458E-1,1.1095935E-1,1.839789E0,6.157307E-1,2.3651261E0,2.4002326E0,3.821182E0,6.800806E-2,1.1258485E0,7.5531244E-1,2.4797306E0,3.3179002E0,5.7069387E0,9.304998E0,5.317592E0,4.4457755E0,1.4586948E0,2.7748706E0,5.012759E0,5.0615964E0,8.988014E0,8.662906E0,1.2215675E1,2.3042188E0,6.201551E0,7.1790347E0,3.5685616E0,1.2703498E1,9.506053E0,1.1125747E1,1.640078E1,5.4455366E0,2.4468407E1,7.12104E0,1.5428041E1,5.6830287E0,2.0960495E1,1.0328914E1,2.0320677E1],"categories":[],"categories_nodes":[],"categories_segments":[],"categories_sizes":[],"default_left":[0,0,0,0,0,0,0,0,0,0,0,0,0,0,0,0,0,0,0,0,0,0,0,0,0,0,0,0,0,0,0,0,0,0,0,0,0,0,0,0,0,0,0,0,0,0,0,0,0,0,0,0,0,0,0,0,0,0,0,0,0,0,0,0,0,0,0,0,0,0,0,0,0,0,0,0,0,0,0,0,0,0,0,0,0,0,0,0,0,0,0,0,0,0,0,0,0,0,0,0,0,0,0,0,0,0,0,0,0,0,0,0,0,0,0,0,0,0,0,0,0],"id":7,"left_children":[1,3,5,7,9,11,13,15,17,19,21,23,25,27,29,31,33,35,37,39,41,43,45,47,49,51,53,55,57,59,61,-1,63,65,67,69,71,73,75,77,79,81,83,85,87,89,91,93,95,97,99,101,103,105,107,109,111,113,115,117,-1,119,-1,-1,-1,-1,-1,-1,-1,-1,-1,-1,-1,-1,-1,-1,-1,-1,-1,-1,-1,-1,-1,-1,-1,-1,-1,-1,-1,-1,-1,-1,-1,-1,-1,-1,-1,-1,-1,-1,-1,-1,-1,-1,-1,-1,-1,-1,-1,-1,-1,-1,-1,-1,-1,-1,-1,-1,-1,-1,-1],"loss_changes":[9.333484E6,1.651351E6,1.2233265E6,2.2400525E5,1.0746037E5,2.47386E5,1.71404E5,5.802025E4,1.6943625E4,1.0978836E4,5.703697E4,3.1661625E4,5.556775E4,1.011185E5,3.4806875E4,6.172E3,4.979625E3,1.3763625E4,5.2940625E3,5.6335273E3,1.0967035E4,1.4344297E4,3.5483047E4,1.2750344E4,2.1808281E4,5.057975E4,1.39100625E4,5.590325E4,5.509175E4,1.8892844E4,1.16915E4,0E0,3.62125E2,3.472125E3,2.2436875E3,6.5723438E3,4.9866562E3,1.7105625E3,6.2061797E3,2.2320293E3,4.5640605E3,2.519028E3,5.612951E3,9.040758E3,4.3278438E3,9.929395E3,3.573221E4,1.6476688E4,1.3057297E4,9.908088E3,8.55825E3,3.2286344E4,3.960525E4,1.146623E4,1.63670625E4,1.0368875E4,2.8896E4,4.2439E4,1.9003281E4,4.44625E2,0E0,3.2143688E4,0E0,0E0,0E0,0E0,0E0,0E0,0E0,0E0,0E0,0E0,0E0,0E0,0E0,0E0,0E0,0E0,0E0,0E0,0E0,0E0,0E0,0E0,0E0,0E0,0E0,0E0,0E0,0E0,0E0,0E0,0E0,0E0,0E0,0E0,0E0,0E0,0E0,0E0,0E0,0E0,0E0,0E0,0E0,0E0,0E0,0E0,0E0,0E0,0E0,0E0,0E0,0E0,0E0,0E0,0E0,0E0,0E0,0E0,0E0],"parents":[2147483647,0,0,1,1,2,2,3,3,4,4,5,5,6,6,7,7,8,8,9,9,10,10,11,11,12,12,13,13,14,14,15,15,16,16,17,17,18,18,19,19,20,20,21,21,22,22,23,23,24,24,25,25,26,26,27,27,28,28,29,29,30,30,32,32,33,33,34,34,35,35,36,36,37,37,38,38,39,39,40,40,41,41,42,42,43,43,44,44,45,45,46,46,47,47,48,48,49,49,50,50,51,51,52,52,53,53,54,54,55,55,56,56,57,57,58,58,59,59,61,61],"right_children":[2,4,6,8,10,12,14,16,18,20,22,24,26,28,30,32,34,36,38,40,42,44,46,48,50,52,54,56,58,60,62,-1,64,66,68,70,72,74,76,78,80,82,84,86,88,90,92,94,96,98,100,102,104,106,108,110,112,114,116,118,-1,120,-1,-1,-1,-1,-1,-1,-1,-1,-1,-1,-1,-1,-1,-1,-1,-1,-1,-1,-1,-1,-1,-1,-1,-1,-1,-1,-1,-1,-1,-1,-1,-1,-1,-1,-1,-1,-1,-1,-1,-1,-1,-1,-1,-1,-1,-1,-1,-1,-1,-1,-1,-1,-1,-1,-1,-1,-1,-1,-1],"split_conditions":[2.007E3,1.264E3,2.893E3,9.41E2,1.475E3,2.382E3,3.767E3,6.89E2,2E0,1.407E3,1E0,2E0,2E0,9E0,7E0,5.05E2,8.08E2,1.029E3,1.117E3,1E0,1E0,1E0,1E0,2.299E3,1E0,2.536E3,1E-1,3.452E3,2E0,1E0,6E0,-4.683582E0,1E0,9E0,1E0,7E0,5.5E-1,1E0,1E0,8.667E-1,1E0,2.667E-1,3E0,3E0,1E0,4E0,1.702E3,1E0,1E1,2E0,2.178E3,5.2E-1,5E0,2.646E3,1E0,7E0,6E0,1E0,3.197E3,3E0,7.774428E0,4.167E-1,2.3918869E1,-3.583475E0,-4.141564E0,-3.6115131E0,-2.8908148E0,-3.2396207E0,-2.8058374E0,-2.601118E0,-1.6297524E0,-1.7163543E0,-1.0720177E0,-2.8305702E0,-2.3837745E0,-2.536609E0,-1.2391862E0,-1.3052386E0,-1.9467776E-1,2.3403831E-1,-7.343524E-1,-1.6249945E0,-2.6707458E-1,1.1095935E-1,1.839789E0,6.157307E-1,2.3651261E0,2.4002326E0,3.821182E0,6.800806E-2,1.1258485E0,7.5531244E-1,2.4797306E0,3.3179002E0,5.7069387E0,9.304998E0,5.317592E0,4.4457755E0,1.4586948E0,2.7748706E0,5.012759E0,5.0615964E0,8.988014E0,8.662906E0,1.2215675E1,2.3042188E0,6.201551E0,7.1790347E0,3.5685616E0,1.2703498E1,9.506053E0,1.1125747E1,1.640078E1,5.4455366E0,2.4468407E1,7.12104E0,1.5428041E1,5.6830287E0,2.0960495E1,1.0328914E1,2.0320677E1],"split_indices":[2,2,2,2,2,2,2,2,7,2,7,7,7,9,5,2,2,2,2,11,12,10,12,2,16,2,20,2,7,7,9,0,7,9,16,9,20,13,18,20,19,20,3,3,12,3,2,12,5,4,2,20,1,2,20,5,4,11,2,4,0,20,0,0,0,0,0,0,0,0,0,0,0,0,0,0,0,0,0,0,0,0,0,0,0,0,0,0,0,0,0,0,0,0,0,0,0,0,0,0,0,0,0,0,0,0,0,0,0,0,0,0,0,0,0,0,0,0,0,0,0],"split_type":[0,0,0,0,0,0,0,0,0,0,0,0,0,0,0,0,0,0,0,0,0,0,0,0,0,0,0,0,0,0,0,0,0,0,0,0,0,0,0,0,0,0,0,0,0,0,0,0,0,0,0,0,0,0,0,0,0,0,0,0,0,0,0,0,0,0,0,0,0,0,0,0,0,0,0,0,0,0,0,0,0,0,0,0,0,0,0,0,0,0,0,0,0,0,0,0,0,0,0,0,0,0,0,0,0,0,0,0,0,0,0,0,0,0,0,0,0,0,0,0,0],"sum_hessian":[6.422E3,5.296E3,1.126E3,3.492E3,1.804E3,8.39E2,2.87E2,2.041E3,1.451E3,5.36E2,1.268E3,3.48E2,4.91E2,2.33E2,5.4E1,7.76E2,1.265E3,8.2E2,6.31E2,3.84E2,1.52E2,2.61E2,1.007E3,1.78E2,1.7E2,2.87E2,2.04E2,1.97E2,3.6E1,1.1E1,4.3E1,3.81E2,3.95E2,5.89E2,6.76E2,3.22E2,4.98E2,4.77E2,1.54E2,1.71E2,2.13E2,7.6E1,7.6E1,1.43E2,1.18E2,5.14E2,4.93E2,1.29E2,4.9E1,7.8E1,9.2E1,9.7E1,1.9E2,3.3E1,1.71E2,1.29E2,6.8E1,1.6E1,2E1,3E0,8E0,2.3E1,2E1,7.9E1,3.16E2,4.79E2,1.1E2,3.65E2,3.11E2,2.05E2,1.17E2,2.57E2,2.41E2,2.35E2,2.42E2,7.7E1,7.7E1,1.5E2,2.1E1,7.4E1,1.39E2,1.7E1,5.9E1,3.3E1,4.3E1,4.3E1,1E2,4E1,7.8E1,4.01E2,1.13E2,2.84E2,2.09E2,6E1,6.9E1,1.5E1,3.4E1,1.3E1,6.5E1,3E1,6.2E1,5.8E1,3.9E1,1.37E2,5.3E1,1.7E1,1.6E1,1.54E2,1.7E1,2.4E1,1.05E2,3.2E1,3.6E1,2E0,1.4E1,7E0,1.3E1,1E0,2E0,9E0,1.4E1],"tree_param":{"num_deleted":"0","num_feature":"21","num_nodes":"121","size_leaf_vector":"1"}},{"base_weights":[-1.7914042E-1,-1.5557549E1,7.495433E1,-2.7399855E1,6.395715E0,1.1623371E2,3.2154537E1,-2.0038834E1,-3.4413673E1,2.4202183E1,-1.2862161E1,9.1163605E1,1.7771245E2,2.0388369E1,6.818996E1,-2.7615316E1,-8.716998E0,-4.076623E1,-3.0733826E1,1.550602E1,3.580857E1,-1.5589979E1,-3.3920208E-1,1.0599702E2,6.6557144E1,2.1420284E2,1.4841301E2,2.9334215E1,1.0608229E1,7.553518E1,3.3730995E1,-3.635705E1,-2.2436396E1,-4.542392E0,-1.5586612E1,-4.4456267E0,-3.8471997E0,-3.3655846E1,-2.717784E1,1.8587067E1,-1.1607857E0,4.3098976E1,2.3254404E1,-1.3064394E1,-2.6592443E1,6.023174E0,-6.6198516E0,9.059294E1,1.2332577E2,4.40295E1,7.817265E1,2.5572762E2,1.7137796E2,1.1856354E2,1.6909406E2,2.5326406E1,5.4766727E1,5.45005E0,2.309133E1,6.7179085E1,1.06954285E2,4.0230503E1,-3.131439E-1,-3.9397194E0,-3.2935503E0,-1.938384E0,-2.7376616E0,-9.277002E-1,1.0367036E-1,-1.0380276E0,-2.0834198E0,-3.181846E0,-3.6551971E0,-2.5128133E0,-3.071738E0,2.6028557E0,9.97869E-1,-1.8729578E0,1.3317464E-1,3.404796E0,5.320631E0,3.9956539E0,1.9257425E0,-4.8091003E-1,-1.5020872E0,-2.472057E0,-3.0662258E0,-7.105242E-1,1.0160998E0,-1.1656096E0,-2.0054571E-1,1.0428061E1,7.3015656E0,5.8018274E0,1.2979993E1,7.2191386E0,3.679287E0,7.188831E0,1.0245844E1,1.9845655E1,2.9795588E1,1.158668E1,1.9338865E1,1.3005574E1,6.993216E0,1.8900923E1,1.3576584E1,1.7693911E0,3.2068322E0,2.5856194E0,6.7100344E0,1.0988082E0,-1.1090334E-1,1.6111174E0,3.138148E0,8.813712E0,6.013068E0,8.253119E0,1.3632541E1,4.569876E0,1.3592334E0,1.8565797E0,-9.674328E-1],"categories":[],"categories_nodes":[],"categories_segments":[],"categories_sizes":[],"default_left":[0,0,0,0,0,0,0,0,0,0,0,0,0,0,0,0,0,0,0,0,0,0,0,0,0,0,0,0,0,0,0,0,0,0,0,0,0,0,0,0,0,0,0,0,0,0,0,0,0,0,0,0,0,0,0,0,0,0,0,0,0,0,0,0,0,0,0,0,0,0,0,0,0,0,0,0,0,0,0,0,0,0,0,0,0,0,0,0,0,0,0,0,0,0,0,0,0,0,0,0,0,0,0,0,0,0,0,0,0,0,0,0,0,0,0,0,0,0,0,0,0,0,0],"id":8,"left_children":[1,3,5,7,9,11,13,15,17,19,21,23,25,27,29,31,33,35,37,39,41,43,45,47,49,51,53,55,57,59,61,63,65,67,69,-1,-1,71,73,75,77,79,81,83,85,87,89,91,93,95,97,99,101,103,105,107,109,111,113,115,117,119,121,-1,-1,-1,-1,-1,-1,-1,-1,-1,-1,-1,-1,-1,-1,-1,-1,-1,-1,-1,-1,-1,-1,-1,-1,-1,-1,-1,-1,-1,-1,-1,-1,-1,-1,-1,-1,-1,-1,-1,-1,-1,-1,-1,-1,-1,-1,-1,-1,-1,-1,-1,-1,-1,-1,-1,-1,-1,-1,-1,-1],"loss_changes":[7.432913E6,1.3884538E6,1.9273195E6,1.78411E5,6.422477E5,8.4075E5,2.2672112E5,1.4515581E5,4.024025E4,9.7650625E4,3.0739031E4,1.37849E5,1.39273E5,3.5297906E4,3.0862438E4,4.5136125E4,1.9458867E4,3.7755E3,1.0806E4,2.8675547E4,3.7072125E4,2.0187656E4,6.513369E3,5.449325E4,3.6331938E4,7.887625E4,3.6745E4,2.0221844E4,1.2494604E4,2.1169312E4,5.5443555E3,2.6135938E3,9.120719E3,1.1235927E4,6.8051523E3,0E0,0E0,2.1095625E3,2.9572188E3,2.9912125E4,3.8785322E3,2.2156656E4,9.578047E3,9.667E3,2.8570312E2,4.472366E3,1.88224E3,2.462525E4,4.0247125E4,8.348906E3,7.7438125E3,2.067775E4,2.2800625E4,1.3819E4,8.85325E3,8.95225E3,8.249031E3,5.097603E3,2.7928008E3,7.6997188E3,3.8129062E3,2.4377969E3,1.0632577E3,0E0,0E0,0E0,0E0,0E0,0E0,0E0,0E0,0E0,0E0,0E0,0E0,0E0,0E0,0E0,0E0,0E0,0E0,0E0,0E0,0E0,0E0,0E0,0E0,0E0,0E0,0E0,0E0,0E0,0E0,0E0,0E0,0E0,0E0,0E0,0E0,0E0,0E0,0E0,0E0,0E0,0E0,0E0,0E0,0E0,0E0,0E0,0E0,0E0,0E0,0E0,0E0,0E0,0E0,0E0,0E0,0E0,0E0,0E0,0E0],"parents":[2147483647,0,0,1,1,2,2,3,3,4,4,5,5,6,6,7,7,8,8,9,9,10,10,11,11,12,12,13,13,14,14,15,15,16,16,17,17,18,18,19,19,20,20,21,21,22,22,23,23,24,24,25,25,26,26,27,27,28,28,29,29,30,30,31,31,32,32,33,33,34,34,37,37,38,38,39,39,40,40,41,41,42,42,43,43,44,44,45,45,46,46,47,47,48,48,49,49,50,50,51,51,52,52,53,53,54,54,55,55,56,56,57,57,58,58,59,59,60,60,61,61,62,62],"right_children":[2,4,6,8,10,12,14,16,18,20,22,24,26,28,30,32,34,36,38,40,42,44,46,48,50,52,54,56,58,60,62,64,66,68,70,-1,-1,72,74,76,78,80,82,84,86,88,90,92,94,96,98,100,102,104,106,108,110,112,114,116,118,120,122,-1,-1,-1,-1,-1,-1,-1,-1,-1,-1,-1,-1,-1,-1,-1,-1,-1,-1,-1,-1,-1,-1,-1,-1,-1,-1,-1,-1,-1,-1,-1,-1,-1,-1,-1,-1,-1,-1,-1,-1,-1,-1,-1,-1,-1,-1,-1,-1,-1,-1,-1,-1,-1,-1,-1,-1,-1,-1,-1,-1],"split_conditions":[2.046E3,1.232E3,1E0,1E0,1E0,2.813E3,2.982E3,9.41E2,7.86E2,1.62E3,1.773E3,7E0,3E0,5E0,1.5E1,6.79E2,7E0,5.47E2,1.017E3,1.5E1,7E0,1.5E1,5E0,2.518E3,2.361E3,2E0,1E0,2.702E3,2.619E3,3.767E3,9.5E-1,5.05E2,7E0,1.053E3,2E0,-4.4456267E0,-3.8471997E0,7E0,7E0,2E0,2E0,1E0,1E0,1E0,2.5E1,3E0,1E0,2E0,4E-2,1E0,5E0,3.384E3,3.197E3,2E1,2E0,6E0,1E0,1.5E1,6E0,1E0,1.5E1,2E0,1E0,-3.9397194E0,-3.2935503E0,-1.938384E0,-2.7376616E0,-9.277002E-1,1.0367036E-1,-1.0380276E0,-2.0834198E0,-3.181846E0,-3.6551971E0,-2.5128133E0,-3.071738E0,2.6028557E0,9.97869E-1,-1.8729578E0,1.3317464E-1,3.404796E0,5.320631E0,3.9956539E0,1.9257425E0,-4.8091003E-1,-1.5020872E0,-2.472057E0,-3.0662258E0,-7.105242E-1,1.0160998E0,-1.1656096E0,-2.0054571E-1,1.0428061E1,7.3015656E0,5.8018274E0,1.2979993E1,7.2191386E0,3.679287E0,7.188831E0,1.0245844E1,1.9845655E1,2.9795588E1,1.158668E1,1.9338865E1,1.3005574E1,6.993216E0,1.8900923E1,1.3576584E1,1.7693911E0,3.2068322E0,2.5856194E0,6.7100344E0,1.0988082E0,-1.1090334E-1,1.6111174E0,3.138148E0,8.813712E0,6.013068E0,8.253119E0,1.3632541E1,4.569876E0,1.3592334E0,1.8565797E0,-9.674328E-1],"split_indices":[2,2,0,0,0,2,2,2,2,2,2,6,6,6,6,2,6,2,2,6,6,6,6,2,2,7,13,2,2,2,20,2,6,2,7,0,0,6,6,7,9,15,7,7,6,9,11,7,20,7,1,2,2,6,7,9,14,6,9,7,5,8,7,0,0,0,0,0,0,0,0,0,0,0,0,0,0,0,0,0,0,0,0,0,0,0,0,0,0,0,0,0,0,0,0,0,0,0,0,0,0,0,0,0,0,0,0,0,0,0,0,0,0,0,0,0,0,0,0,0,0,0,0],"split_type":[0,0,0,0,0,0,0,0,0,0,0,0,0,0,0,0,0,0,0,0,0,0,0,0,0,0,0,0,0,0,0,0,0,0,0,0,0,0,0,0,0,0,0,0,0,0,0,0,0,0,0,0,0,0,0,0,0,0,0,0,0,0,0,0,0,0,0,0,0,0,0,0,0,0,0,0,0,0,0,0,0,0,0,0,0,0,0,0,0,0,0,0,0,0,0,0,0,0,0,0,0,0,0,0,0,0,0,0,0,0,0,0,0,0,0,0,0,0,0,0,0,0,0],"sum_hessian":[6.431E3,5.339E3,1.092E3,3.468E3,1.871E3,5.55E2,5.37E2,1.694E3,1.774E3,9.72E2,8.99E2,3.96E2,1.59E2,4.06E2,1.31E2,1.014E3,6.8E2,6.47E2,1.127E3,5.57E2,4.15E2,7.38E2,1.61E2,2.45E2,1.51E2,6.8E1,9.1E1,2.11E2,1.95E2,1.07E2,2.4E1,3.75E2,6.39E2,4.24E2,2.56E2,2.41E2,4.06E2,6.14E2,5.13E2,4.7E2,8.7E1,2.61E2,1.54E2,6.02E2,1.36E2,8E1,8.1E1,1.33E2,1.12E2,5.3E1,9.8E1,3.2E1,3.6E1,4E1,5.1E1,1.84E2,2.7E1,1.39E2,5.6E1,8.7E1,2E1,2E1,4E0,1.93E2,1.82E2,3.98E2,2.41E2,2.29E2,1.95E2,1.3E2,1.26E2,3.83E2,2.31E2,3.3E2,1.83E2,2.51E2,2.19E2,1E1,7.7E1,1.4E2,1.21E2,2.8E1,1.26E2,1.16E2,4.86E2,9.8E1,3.8E1,1.9E1,6.1E1,3.8E1,4.3E1,7.2E1,6.1E1,1.1E1,1.01E2,9E0,4.4E1,8.1E1,1.7E1,1.6E1,1.6E1,1.2E1,2.4E1,3.1E1,9E0,2.9E1,2.2E1,8.8E1,9.6E1,9E0,1.8E1,7.5E1,6.4E1,3.2E1,2.4E1,1.9E1,6.8E1,1.3E1,7E0,1.6E1,4E0,1E0,3E0],"tree_param":{"num_deleted":"0","num_feature":"21","num_nodes":"123","size_leaf_vector":"1"}},{"base_weights":[3.8592827E-2,-1.7025627E1,5.235801E1,-2.6708366E1,-2.9114945E0,8.572617E1,1.7890375E1,-2.0879793E1,-3.2522358E1,1.1771405E1,-1.7457697E1,6.100938E1,1.4081676E2,7.104656E0,4.600053E1,-3.3900337E0,-1.7373068E1,-3.9147096E0,-3.0913933E1,2.6029846E1,8.077288E0,-1.4776599E1,-2.0874163E1,5.093052E1,7.07612E1,1.2932477E2,1.6916588E2,1.7516277E1,4.9491525E0,3.833785E1,5.527615E1,-1.4746998E1,-2.0365513E1,-3.270123E1,-2.8811222E1,1.386668E1,3.0072878E1,3.9412775E0,1.5685841E1,-1.7978825E1,-1.1657355E1,-2.3419666E1,-1.8171642E1,4.697573E1,6.1483303E1,9.188723E1,6.430175E1,1.12733025E2,1.4957637E2,1.566257E2,2.3397093E1,-3.5629406E0,1.9214226E1,6.445422E-1,9.656239E0,2.692945E1,4.841337E1,6.41661E1,2.465692E1,-1.8698657E0,-1.2211012E0,-2.3812573E0,-1.8564099E0,-3.1070905E0,-3.4660866E0,-2.4770682E0,-2.9629064E0,-3.823658E-1,1.870613E0,1.5544174E0,3.2993863E0,8.3425474E-1,5.5374946E-2,2.210255E0,1.0542287E0,-2.259715E0,-1.6893151E0,-1.3081759E0,-8.4769595E-1,-2.5179455E0,-1.963117E0,-1.9614702E0,-1.4230613E0,5.384321E0,3.723325E0,4.335447E0,6.672339E0,5.7439594E0,1.0657359E1,5.4159985E0,7.315647E0,9.411694E0,1.2352565E1,1.5643422E1,7.0015955E0,1.6839607E1,9.55112E0,6.32292E-1,-1.0759041E0,2.240185E0,7.0968306E-1,-6.533537E-1,2.3366284E-1,3.003219E-1,1.3007411E0,3.0298536E0,1.5981368E0,3.609153E0,5.3305125E0,2.9456587E0,6.628509E0,-8.1152076E-1,2.99785E0],"categories":[],"categories_nodes":[],"categories_segments":[],"categories_sizes":[],"default_left":[0,0,0,0,0,0,0,0,0,0,0,0,0,0,0,0,0,0,0,0,0,0,0,0,0,0,0,0,0,0,0,0,0,0,0,0,0,0,0,0,0,0,0,0,0,0,0,0,0,0,0,0,0,0,0,0,0,0,0,0,0,0,0,0,0,0,0,0,0,0,0,0,0,0,0,0,0,0,0,0,0,0,0,0,0,0,0,0,0,0,0,0,0,0,0,0,0,0,0,0,0,0,0,0,0,0,0,0,0,0,0,0,0],"id":9,"left_children":[1,3,5,7,9,11,13,15,17,19,21,23,25,27,29,-1,31,-1,33,35,37,39,41,43,45,47,49,51,53,55,57,59,61,63,65,67,69,71,73,75,77,79,81,83,85,87,89,91,93,95,-1,97,99,101,103,105,107,109,111,-1,-1,-1,-1,-1,-1,-1,-1,-1,-1,-1,-1,-1,-1,-1,-1,-1,-1,-1,-1,-1,-1,-1,-1,-1,-1,-1,-1,-1,-1,-1,-1,-1,-1,-1,-1,-1,-1,-1,-1,-1,-1,-1,-1,-1,-1,-1,-1,-1,-1,-1,-1,-1,-1],"loss_changes":[5.7174265E6,6.598699E5,1.809908E6,9.637425E4,4.2010462E5,1.080739E6,2.3494725E5,6.4841125E4,1.4048375E4,5.1356E4,8.7415E3,5.084725E4,5.85925E4,1.2525875E4,1.31621875E4,0E0,8.587469E3,0E0,3.406E3,9.467375E3,2.4452574E4,5.3540234E3,2.5462969E3,8.630375E3,3.2164625E4,4.36195E4,1.86155E4,3.5044355E3,9.456211E3,1.2604672E4,2.4277188E4,5.8445938E3,2.8241875E3,8.975E2,1.0505E3,4.5233223E3,5.852875E3,7.5395474E3,8.810266E3,9.8708594E2,1.1802031E3,9.657578E2,9.379219E2,1.1711031E4,3.947E3,2.5750812E4,1.5525E4,9.0685E3,3.1605E4,2.707675E4,0E0,6.371456E2,3.278707E3,2.9910188E3,4.9328105E3,1.6920078E3,1.8734844E3,3.4165312E3,4.2544688E3,0E0,0E0,0E0,0E0,0E0,0E0,0E0,0E0,0E0,0E0,0E0,0E0,0E0,0E0,0E0,0E0,0E0,0E0,0E0,0E0,0E0,0E0,0E0,0E0,0E0,0E0,0E0,0E0,0E0,0E0,0E0,0E0,0E0,0E0,0E0,0E0,0E0,0E0,0E0,0E0,0E0,0E0,0E0,0E0,0E0,0E0,0E0,0E0,0E0,0E0,0E0,0E0,0E0,0E0],"parents":[2147483647,0,0,1,1,2,2,3,3,4,4,5,5,6,6,7,7,8,8,9,9,10,10,11,11,12,12,13,13,14,14,16,16,18,18,19,19,20,20,21,21,22,22,23,23,24,24,25,25,26,26,27,27,28,28,29,29,30,30,31,31,32,32,33,33,34,34,35,35,36,36,37,37,38,38,39,39,40,40,41,41,42,42,43,43,44,44,45,45,46,46,47,47,48,48,49,49,51,51,52,52,53,53,54,54,55,55,56,56,57,57,58,58],"right_children":[2,4,6,8,10,12,14,16,18,20,22,24,26,28,30,-1,32,-1,34,36,38,40,42,44,46,48,50,52,54,56,58,60,62,64,66,68,70,72,74,76,78,80,82,84,86,88,90,92,94,96,-1,98,100,102,104,106,108,110,112,-1,-1,-1,-1,-1,-1,-1,-1,-1,-1,-1,-1,-1,-1,-1,-1,-1,-1,-1,-1,-1,-1,-1,-1,-1,-1,-1,-1,-1,-1,-1,-1,-1,-1,-1,-1,-1,-1,-1,-1,-1,-1,-1,-1,-1,-1,-1,-1,-1,-1,-1,-1,-1,-1],"split_conditions":[4E0,3E0,1E0,1E0,1E0,5E0,5E0,2E0,2E0,1E0,2E0,1E0,8E0,1E0,5.833E-1,-3.3900337E0,2E0,-3.9147096E0,6E0,3E0,7E0,5E0,1E0,2E1,1E0,6E0,1.6E1,8E-2,1E0,1E0,9.2E-1,4E0,3E-1,2E0,1E0,1E1,1.333E-1,2E0,2E0,1.429E-1,2E1,1E0,9E0,2E0,5E0,1E0,8E0,5E0,1.9E1,1E1,2.3397093E1,1E0,8.333E-1,1.6E-1,1E0,4.167E-1,1E0,1E0,9.6E-1,-1.8698657E0,-1.2211012E0,-2.3812573E0,-1.8564099E0,-3.1070905E0,-3.4660866E0,-2.4770682E0,-2.9629064E0,-3.823658E-1,1.870613E0,1.5544174E0,3.2993863E0,8.3425474E-1,5.5374946E-2,2.210255E0,1.0542287E0,-2.259715E0,-1.6893151E0,-1.3081759E0,-8.4769595E-1,-2.5179455E0,-1.963117E0,-1.9614702E0,-1.4230613E0,5.384321E0,3.723325E0,4.335447E0,6.672339E0,5.7439594E0,1.0657359E1,5.4159985E0,7.315647E0,9.411694E0,1.2352565E1,1.5643422E1,7.0015955E0,1.6839607E1,9.55112E0,6.32292E-1,-1.0759041E0,2.240185E0,7.0968306E-1,-6.533537E-1,2.3366284E-1,3.003219E-1,1.3007411E0,3.0298536E0,1.5981368E0,3.609153E0,5.3305125E0,2.9456587E0,6.628509E0,-8.1152076E-1,2.99785E0],"split_indices":[1,1,0,0,0,1,1,1,1,7,7,17,9,7,20,0,7,0,9,9,9,9,10,5,7,4,4,20,11,13,20,9,20,7,7,5,20,7,7,20,5,17,9,7,4,10,9,3,4,4,0,10,20,20,19,20,18,9,20,0,0,0,0,0,0,0,0,0,0,0,0,0,0,0,0,0,0,0,0,0,0,0,0,0,0,0,0,0,0,0,0,0,0,0,0,0,0,0,0,0,0,0,0,0,0,0,0,0,0,0,0,0,0],"split_type":[0,0,0,0,0,0,0,0,0,0,0,0,0,0,0,0,0,0,0,0,0,0,0,0,0,0,0,0,0,0,0,0,0,0,0,0,0,0,0,0,0,0,0,0,0,0,0,0,0,0,0,0,0,0,0,0,0,0,0,0,0,0,0,0,0,0,0,0,0,0,0,0,0,0,0,0,0,0,0,0,0,0,0,0,0,0,0,0,0,0,0,0,0,0,0,0,0,0,0,0,0,0,0,0,0,0,0,0,0,0,0,0,0],"sum_hessian":[6.402E3,4.828E3,1.574E3,2.863E3,1.965E3,7.99E2,7.75E2,1.432E3,1.431E3,9.78E2,9.87E2,5.53E2,2.46E2,5.61E2,2.14E2,3.02E2,1.13E3,2.75E2,1.156E3,2E2,7.78E2,5.56E2,4.31E2,2.75E2,2.78E2,1.79E2,6.7E1,9.5E1,4.66E2,1.2E2,9.4E1,6.05E2,5.25E2,6.17E2,5.39E2,5.1E1,1.49E2,5.05E2,2.73E2,2.72E2,2.84E2,2.18E2,2.13E2,2.04E2,7.1E1,6.2E1,2.16E2,1.02E2,7.7E1,5.9E1,8E0,7E0,8.8E1,2.44E2,2.22E2,5.8E1,6.2E1,7.2E1,2.2E1,2.34E2,3.71E2,1.76E2,3.49E2,3.46E2,2.71E2,9.6E1,4.43E2,1.1E1,4E1,2.6E1,1.23E2,2.19E2,2.86E2,1.2E2,1.53E2,4.8E1,2.24E2,1.94E2,9E1,1.45E2,7.3E1,1.53E2,6E1,1.17E2,8.7E1,1.8E1,5.3E1,2E1,4.2E1,1.04E2,1.12E2,4.1E1,6.1E1,7E1,7E0,4.8E1,1.1E1,3E0,4E0,6.9E1,1.9E1,4.6E1,1.98E2,7.5E1,1.47E2,4.3E1,1.5E1,2E1,4.2E1,5E0,6.7E1,3E0,1.9E1],"tree_param":{"num_deleted":"0","num_feature":"21","num_nodes":"113","size_leaf_vector":"1"}},{"base_weights":[1.5720843E-1,-1.3126429E1,5.9898968E1,-2.1713451E1,6.5202036E0,9.1833954E1,2.5747032E1,-2.856942E1,-1.6299921E1,2.1819525E1,-9.9306E0,7.3222404E1,1.5498439E2,1.6702345E1,5.9484737E1,-2.4748795E1,-3.220475E1,-8.294999E0,-2.376173E1,3.443549E1,1.6662327E1,-5.984909E0,-1.6564405E1,8.4876205E1,5.2826004E1,1.6401236E2,7.182658E1,2.4338806E1,8.113611E0,6.780106E1,3.694437E1,-2.950687E1,-1.9370863E1,-3.639015E0,-3.041219E1,-1.2238208E1,-2.960758E0,-2.579901E1,-1.9884409E1,2.8114317E1,5.3459206E1,9.6195345E0,2.4433147E1,-1.0557395E1,-1.2521179E0,-1.7973732E1,-7.250083E0,7.216432E1,1.0797234E2,3.6730026E1,6.1644543E1,1.3834802E2,1.8330312E2,7.8156006E1,-8.3927155E-1,2.038405E1,4.552374E1,4.589966E0,1.6262592E1,5.2540123E1,9.0256485E1,1.8641136E1,4.3794003E1,-2.8189259E0,-3.5456645E0,-1.4870162E0,-2.227101E0,-2.8793325E0,-3.3096528E0,-1.0414674E0,-2.0558786E0,6.499018E-1,-6.084503E-1,-2.4030035E0,-2.8785775E0,-1.7804806E0,-2.3420339E0,3.4459606E-1,2.985583E0,6.6725307E0,4.582133E0,3.3438003E-1,1.595545E0,2.7712915E0,8.2085687E-1,-1.3678399E0,-6.937501E-1,-2.961081E-1,9.0384865E-1,-1.4949274E0,-2.1234338E0,6.9985986E-1,-1.1152923E0,8.472033E0,6.3020554E0,7.4940963E0,1.1237574E1,3.9580712E0,8.270159E-1,5.663199E0,8.92811E0,1.09584E1,1.5800984E1,1.9781973E1,1.3360222E1,2.3194623E0,9.103687E0,1.0686581E0,2.2988567E0,2.7830791E0,5.551785E0,9.944307E-1,-1.6844867E-1,1.8894709E0,-1.6295116E-1,4.212164E0,6.3374057E0,4.903136E0,9.946974E0,2.3442175E0,-1.9756876E-1,5.466979E0,2.3100922E0],"categories":[],"categories_nodes":[],"categories_segments":[],"categories_sizes":[],"default_left":[0,0,0,0,0,0,0,0,0,0,0,0,0,0,0,0,0,0,0,0,0,0,0,0,0,0,0,0,0,0,0,0,0,0,0,0,0,0,0,0,0,0,0,0,0,0,0,0,0,0,0,0,0,0,0,0,0,0,0,0,0,0,0,0,0,0,0,0,0,0,0,0,0,0,0,0,0,0,0,0,0,0,0,0,0,0,0,0,0,0,0,0,0,0,0,0,0,0,0,0,0,0,0,0,0,0,0,0,0,0,0,0,0,0,0,0,0,0,0,0,0,0,0],"id":10,"left_children":[1,3,5,7,9,11,13,15,17,19,21,23,25,27,29,31,33,35,37,39,41,43,45,47,49,51,53,55,57,59,61,63,65,-1,67,69,71,73,75,77,79,81,83,85,87,89,91,93,95,97,99,101,103,105,-1,107,109,111,113,115,117,119,121,-1,-1,-1,-1,-1,-1,-1,-1,-1,-1,-1,-1,-1,-1,-1,-1,-1,-1,-1,-1,-1,-1,-1,-1,-1,-1,-1,-1,-1,-1,-1,-1,-1,-1,-1,-1,-1,-1,-1,-1,-1,-1,-1,-1,-1,-1,-1,-1,-1,-1,-1,-1,-1,-1,-1,-1,-1,-1,-1,-1],"loss_changes":[5.0432435E6,8.772445E5,1.258417E6,1.3381625E5,3.983841E5,6.903225E5,1.6988872E5,2.135625E4,1.20698875E5,5.2777875E4,1.9872344E4,1.0556925E5,8.957E4,2.8857797E4,1.9614625E4,1.9438719E4,5.0004375E3,2.0535047E4,7.7574375E3,2.6996781E4,3.1726297E4,1.0374277E4,3.5977344E3,7.823175E4,2.2008031E4,3.45455E4,8.272078E3,1.8676844E4,5.9553213E3,2.4386594E4,3.4462188E3,2.2382188E3,4.498328E3,0E0,1.5500625E3,8.313039E3,1.2361861E4,2.9169375E3,2.2669688E3,7.6299688E3,2.8194062E3,1.2193504E4,1.4512484E4,2.661746E3,4.194708E3,2.1085078E3,2.2468574E3,1.670425E4,6.4145E3,4.7838516E3,1.00435625E4,1.43555E4,2.1189E4,7.799742E3,0E0,4.7805156E3,4.8206094E3,4.9888936E3,2.9977148E3,3.3128594E3,7.6568438E3,1.1351179E3,4.138367E3,0E0,0E0,0E0,0E0,0E0,0E0,0E0,0E0,0E0,0E0,0E0,0E0,0E0,0E0,0E0,0E0,0E0,0E0,0E0,0E0,0E0,0E0,0E0,0E0,0E0,0E0,0E0,0E0,0E0,0E0,0E0,0E0,0E0,0E0,0E0,0E0,0E0,0E0,0E0,0E0,0E0,0E0,0E0,0E0,0E0,0E0,0E0,0E0,0E0,0E0,0E0,0E0,0E0,0E0,0E0,0E0,0E0,0E0,0E0,0E0],"parents":[2147483647,0,0,1,1,2,2,3,3,4,4,5,5,6,6,7,7,8,8,9,9,10,10,11,11,12,12,13,13,14,14,15,15,16,16,17,17,18,18,19,19,20,20,21,21,22,22,23,23,24,24,25,25,26,26,27,27,28,28,29,29,30,30,31,31,32,32,34,34,35,35,36,36,37,37,38,38,39,39,40,40,41,41,42,42,43,43,44,44,45,45,46,46,47,47,48,48,49,49,50,50,51,51,52,52,53,53,55,55,56,56,57,57,58,58,59,59,60,60,61,61,62,62],"right_children":[2,4,6,8,10,12,14,16,18,20,22,24,26,28,30,32,34,36,38,40,42,44,46,48,50,52,54,56,58,60,62,64,66,-1,68,70,72,74,76,78,80,82,84,86,88,90,92,94,96,98,100,102,104,106,-1,108,110,112,114,116,118,120,122,-1,-1,-1,-1,-1,-1,-1,-1,-1,-1,-1,-1,-1,-1,-1,-1,-1,-1,-1,-1,-1,-1,-1,-1,-1,-1,-1,-1,-1,-1,-1,-1,-1,-1,-1,-1,-1,-1,-1,-1,-1,-1,-1,-1,-1,-1,-1,-1,-1,-1,-1,-1,-1,-1,-1,-1,-1,-1,-1,-1],"split_conditions":[1.975E3,1.32E3,1E0,8.53E2,1E0,2.893E3,3.096E3,1E0,1E0,2E0,7E0,7E0,2E1,5E0,1E1,6.94E2,5.47E2,1.05E3,1.078E3,1.709E3,1.628E3,1.612E3,1.803E3,2.592E3,2.361E3,5E0,3.767E3,2.702E3,2.619E3,3.576E3,3.384E3,1.5E1,3E0,-3.639015E0,7E0,1.5E1,2E0,7E0,7E0,1E0,1E0,1E0,2E1,1E0,1.834E3,1.5E1,1E1,2E0,1E0,2.343E3,5E0,1E0,7E0,3.292E3,-8.3927155E-1,2.178E3,1E0,1.5E1,2.5E1,1E0,2E0,2E1,8E0,-2.8189259E0,-3.5456645E0,-1.4870162E0,-2.227101E0,-2.8793325E0,-3.3096528E0,-1.0414674E0,-2.0558786E0,6.499018E-1,-6.084503E-1,-2.4030035E0,-2.8785775E0,-1.7804806E0,-2.3420339E0,3.4459606E-1,2.985583E0,6.6725307E0,4.582133E0,3.3438003E-1,1.595545E0,2.7712915E0,8.2085687E-1,-1.3678399E0,-6.937501E-1,-2.961081E-1,9.0384865E-1,-1.4949274E0,-2.1234338E0,6.9985986E-1,-1.1152923E0,8.472033E0,6.3020554E0,7.4940963E0,1.1237574E1,3.9580712E0,8.270159E-1,5.663199E0,8.92811E0,1.09584E1,1.5800984E1,1.9781973E1,1.3360222E1,2.3194623E0,9.103687E0,1.0686581E0,2.2988567E0,2.7830791E0,5.551785E0,9.944307E-1,-1.6844867E-1,1.8894709E0,-1.6295116E-1,4.212164E0,6.3374057E0,4.903136E0,9.946974E0,2.3442175E0,-1.9756876E-1,5.466979E0,2.3100922E0],"split_indices":[2,2,0,2,0,2,2,0,0,6,6,6,6,6,6,2,2,2,2,2,2,2,2,2,2,3,2,2,2,2,2,6,6,0,6,6,6,6,6,4,8,10,6,12,2,6,6,6,4,2,3,17,6,2,0,2,14,6,6,17,4,6,4,0,0,0,0,0,0,0,0,0,0,0,0,0,0,0,0,0,0,0,0,0,0,0,0,0,0,0,0,0,0,0,0,0,0,0,0,0,0,0,0,0,0,0,0,0,0,0,0,0,0,0,0,0,0,0,0,0,0,0,0],"split_type":[0,0,0,0,0,0,0,0,0,0,0,0,0,0,0,0,0,0,0,0,0,0,0,0,0,0,0,0,0,0,0,0,0,0,0,0,0,0,0,0,0,0,0,0,0,0,0,0,0,0,0,0,0,0,0,0,0,0,0,0,0,0,0,0,0,0,0,0,0,0,0,0,0,0,0,0,0,0,0,0,0,0,0,0,0,0,0,0,0,0,0,0,0,0,0,0,0,0,0,0,0,0,0,0,0,0,0,0,0,0,0,0,0,0,0,0,0,0,0,0,0,0,0],"sum_hessian":[6.353E3,5.198E3,1.155E3,3.617E3,1.581E3,5.96E2,5.59E2,1.594E3,2.023E3,8.19E2,7.62E2,4.62E2,1.34E2,4.42E2,1.17E2,7.81E2,8.13E2,9.77E2,1.046E3,2.36E2,5.83E2,4.79E2,2.83E2,2.92E2,1.7E2,1.2E2,1.4E1,2.33E2,2.09E2,8.4E1,3.3E1,4.12E2,3.69E2,2.38E2,5.75E2,5.61E2,4.16E2,6.82E2,3.64E2,1.79E2,5.7E1,3.07E2,2.76E2,2.43E2,2.36E2,2.45E2,3.8E1,1.91E2,1.01E2,6.2E1,1.08E2,5.5E1,6.5E1,1.3E1,1E0,1.98E2,3.5E1,1.47E2,6.2E1,5.2E1,3.2E1,1E1,2.3E1,3.42E2,7E1,1.47E2,2.22E2,3.66E2,2.09E2,4.62E2,9.9E1,1.03E2,3.13E2,4.34E2,2.48E2,2.33E2,1.31E2,1.2E1,1.67E2,1.8E1,3.9E1,1.55E2,1.52E2,2.29E2,4.7E1,1.29E2,1.14E2,2.03E2,3.3E1,1.3E2,1.15E2,8E0,3E1,7.7E1,1.14E2,1.4E1,8.7E1,5.6E1,6E0,9.4E1,1.4E1,2.5E1,3E1,4.8E1,1.7E1,3E0,1E1,4.3E1,1.55E2,1.4E1,2.1E1,7.9E1,6.8E1,5.4E1,8E0,2.9E1,2.3E1,7E0,2.5E1,8E0,2E0,1.4E1,9E0],"tree_param":{"num_deleted":"0","num_feature":"21","num_nodes":"123","size_leaf_vector":"1"}},{"base_weights":[2.9066068E-1,-1.1453153E1,5.7590237E1,-1.9930204E1,5.0586843E0,8.820961E1,2.43332E1,-2.575448E1,-1.4930475E1,1.8951345E1,-9.602748E0,7.334274E1,1.4689644E2,1.566227E1,5.8537434E1,-3.003866E1,-2.3313448E1,-8.066635E0,-2.1634436E1,2.2269335E1,3.9273355E0,-1.3421234E1,-5.085966E0,5.079344E1,8.448611E1,1.9785674E2,1.3240211E2,2.1136374E1,3.1376424E0,3.7399727E1,6.770611E1,-3.1915955E1,-2.789988E1,-1.9129805E1,-2.7224699E1,-1.2300009E1,-3.9325576E0,-2.037585E1,-2.6847258E1,3.815218E1,1.8398977E1,-1.0369992E0,1.4145641E1,-9.792386E0,-1.6356434E1,-2.7826676E-1,-1.1712686E1,5.770202E1,2.308309E1,1.21218864E2,7.738444E1,9.223064E0,2.220734E2,1.8961137E2,1.1953795E2,8.796008E0,2.6041948E1,6.547173E-1,1.1981849E1,5.716026E1,2.546381E1,5.1210808E1,8.277889E1,-3.0404603E0,-3.4256272E0,-2.5638328E0,-3.0172632E0,-1.552061E0,-2.1508262E0,-2.6056757E0,-2.999133E0,-9.676275E-1,-1.6845382E0,3.6578327E-1,-8.086979E-1,-2.310154E0,-1.8194824E0,-2.522104E0,-3.1106925E0,2.4062274E0,4.2672763E0,1.1008911E0,2.6597598E0,1.8847325E-1,-1.0521272E0,8.971569E-2,2.1112976E0,-7.039641E-1,-1.350684E0,-1.9332411E0,-1.3457698E0,5.2883023E-1,-6.6013837E-1,-1.7481663E0,-8.9992803E-1,6.9752364E0,4.6247067E0,3.0938911E0,5.2729857E-1,7.502586E0,1.3667426E1,6.8843036E0,9.081403E0,2.333933E1,1.4817475E0,2.080517E1,8.688752E0,1.0476147E1,1.7362995E1,4.517877E-1,2.5391119E0,1.3996475E0,3.052592E0,-2.6009318E-1,1.0146049E0,2.672057E0,6.747626E-1,2.4858613E0,6.5165405E0,4.4864136E-1,2.964398E0,8.076285E0,4.1623235E0,8.723949E0,3.7675247E0],"categories":[],"categories_nodes":[],"categories_segments":[],"categories_sizes":[],"default_left":[0,0,0,0,0,0,0,0,0,0,0,0,0,0,0,0,0,0,0,0,0,0,0,0,0,0,0,0,0,0,0,0,0,0,0,0,0,0,0,0,0,0,0,0,0,0,0,0,0,0,0,0,0,0,0,0,0,0,0,0,0,0,0,0,0,0,0,0,0,0,0,0,0,0,0,0,0,0,0,0,0,0,0,0,0,0,0,0,0,0,0,0,0,0,0,0,0,0,0,0,0,0,0,0,0,0,0,0,0,0,0,0,0,0,0,0,0,0,0,0,0,0,0,0,0],"id":11,"left_children":[1,3,5,7,9,11,13,15,17,19,21,23,25,27,29,31,33,35,37,39,41,43,45,47,49,51,53,55,57,59,61,63,65,67,69,71,73,75,77,79,81,83,85,87,89,91,93,95,97,99,101,-1,103,105,107,109,111,113,115,117,119,121,123,-1,-1,-1,-1,-1,-1,-1,-1,-1,-1,-1,-1,-1,-1,-1,-1,-1,-1,-1,-1,-1,-1,-1,-1,-1,-1,-1,-1,-1,-1,-1,-1,-1,-1,-1,-1,-1,-1,-1,-1,-1,-1,-1,-1,-1,-1,-1,-1,-1,-1,-1,-1,-1,-1,-1,-1,-1,-1,-1,-1,-1,-1],"loss_changes":[4.288477E6,7.4041094E5,1.1017015E6,1.0138925E5,3.657989E5,4.813095E5,1.5360269E5,1.6168125E4,8.647153E4,4.5873812E4,1.5005844E4,1.0928525E5,5.7269E4,2.8523664E4,1.7817281E4,1.446375E3,1.6366125E4,1.6262648E4,5.6988438E3,4.5709562E4,8.53682E3,4.877953E3,1.2804169E4,2.7766781E4,6.91395E4,3.835E4,4.4305625E4,1.7326555E4,2.8029712E3,6.5637266E3,1.3662219E4,3.01875E1,6.656094E2,3.9755E3,9.3434375E2,5.3228984E3,1.4945012E4,4.163125E3,4.761875E2,8.3363125E3,3.66055E4,3.1788271E3,5.057923E3,2.0930527E3,1.9827344E3,8.271259E3,2.4881328E3,1.34765625E4,4.314076E3,2.3300688E4,2.29985E4,0E0,3.8771812E4,1.03368125E4,4.33555E4,5.848955E3,1.0753141E4,3.1473342E3,1.9797805E3,1.4830273E3,1.8838516E3,7.1216953E3,3.9560625E3,0E0,0E0,0E0,0E0,0E0,0E0,0E0,0E0,0E0,0E0,0E0,0E0,0E0,0E0,0E0,0E0,0E0,0E0,0E0,0E0,0E0,0E0,0E0,0E0,0E0,0E0,0E0,0E0,0E0,0E0,0E0,0E0,0E0,0E0,0E0,0E0,0E0,0E0,0E0,0E0,0E0,0E0,0E0,0E0,0E0,0E0,0E0,0E0,0E0,0E0,0E0,0E0,0E0,0E0,0E0,0E0,0E0,0E0,0E0,0E0,0E0,0E0],"parents":[2147483647,0,0,1,1,2,2,3,3,4,4,5,5,6,6,7,7,8,8,9,9,10,10,11,11,12,12,13,13,14,14,15,15,16,16,17,17,18,18,19,19,20,20,21,21,22,22,23,23,24,24,25,25,26,26,27,27,28,28,29,29,30,30,31,31,32,32,33,33,34,34,35,35,36,36,37,37,38,38,39,39,40,40,41,41,42,42,43,43,44,44,45,45,46,46,47,47,48,48,49,49,50,50,52,52,53,53,54,54,55,55,56,56,57,57,58,58,59,59,60,60,61,61,62,62],"right_children":[2,4,6,8,10,12,14,16,18,20,22,24,26,28,30,32,34,36,38,40,42,44,46,48,50,52,54,56,58,60,62,64,66,68,70,72,74,76,78,80,82,84,86,88,90,92,94,96,98,100,102,-1,104,106,108,110,112,114,116,118,120,122,124,-1,-1,-1,-1,-1,-1,-1,-1,-1,-1,-1,-1,-1,-1,-1,-1,-1,-1,-1,-1,-1,-1,-1,-1,-1,-1,-1,-1,-1,-1,-1,-1,-1,-1,-1,-1,-1,-1,-1,-1,-1,-1,-1,-1,-1,-1,-1,-1,-1,-1,-1,-1,-1,-1,-1,-1,-1,-1,-1,-1,-1,-1],"split_conditions":[2.046E3,1.264E3,1E0,8.53E2,1E0,3.096E3,3.197E3,5.9E2,1E0,1.5E1,1.612E3,2.382E3,1E0,1E1,5E0,4.72E2,1E0,5E0,1.5E1,1E0,1.709E3,3E0,7E0,1.5E1,1E0,7E0,1E0,2.299E3,2.702E3,3E0,1E0,7E0,1E0,3E0,1E1,7E0,3E0,1.017E3,2.5E1,3E0,1.598E3,2.5E1,3E0,2E0,1.438E3,2E0,4E0,1.2E1,2.5E1,4E0,2.683E3,9.223064E0,2.5E1,1.5E1,9E0,9E0,1E0,8E0,1E0,3.384E3,1E0,1E0,2E0,-3.0404603E0,-3.4256272E0,-2.5638328E0,-3.0172632E0,-1.552061E0,-2.1508262E0,-2.6056757E0,-2.999133E0,-9.676275E-1,-1.6845382E0,3.6578327E-1,-8.086979E-1,-2.310154E0,-1.8194824E0,-2.522104E0,-3.1106925E0,2.4062274E0,4.2672763E0,1.1008911E0,2.6597598E0,1.8847325E-1,-1.0521272E0,8.971569E-2,2.1112976E0,-7.039641E-1,-1.350684E0,-1.9332411E0,-1.3457698E0,5.2883023E-1,-6.6013837E-1,-1.7481663E0,-8.9992803E-1,6.9752364E0,4.6247067E0,3.0938911E0,5.2729857E-1,7.502586E0,1.3667426E1,6.8843036E0,9.081403E0,2.333933E1,1.4817475E0,2.080517E1,8.688752E0,1.0476147E1,1.7362995E1,4.517877E-1,2.5391119E0,1.3996475E0,3.052592E0,-2.6009318E-1,1.0146049E0,2.672057E0,6.747626E-1,2.4858613E0,6.5165405E0,4.4864136E-1,2.964398E0,8.076285E0,4.1623235E0,8.723949E0,3.7675247E0],"split_indices":[2,2,0,2,0,2,2,2,0,6,2,2,6,6,3,2,0,9,6,7,2,6,6,6,6,5,7,2,2,6,18,6,0,6,6,6,6,2,6,9,2,6,9,7,2,7,9,5,6,3,2,0,5,6,9,9,8,9,7,2,8,7,8,0,0,0,0,0,0,0,0,0,0,0,0,0,0,0,0,0,0,0,0,0,0,0,0,0,0,0,0,0,0,0,0,0,0,0,0,0,0,0,0,0,0,0,0,0,0,0,0,0,0,0,0,0,0,0,0,0,0,0,0,0,0],"split_type":[0,0,0,0,0,0,0,0,0,0,0,0,0,0,0,0,0,0,0,0,0,0,0,0,0,0,0,0,0,0,0,0,0,0,0,0,0,0,0,0,0,0,0,0,0,0,0,0,0,0,0,0,0,0,0,0,0,0,0,0,0,0,0,0,0,0,0,0,0,0,0,0,0,0,0,0,0,0,0,0,0,0,0,0,0,0,0,0,0,0,0,0,0,0,0,0,0,0,0,0,0,0,0,0,0,0,0,0,0,0,0,0,0,0,0,0,0,0,0,0,0,0,0,0,0],"sum_hessian":[6.371E3,5.288E3,1.083E3,3.494E3,1.794E3,5.63E2,5.2E2,1.612E3,1.882E3,9.21E2,8.73E2,4.51E2,1.12E2,4.16E2,1.04E2,5.81E2,1.031E3,9.31E2,9.51E2,7.54E2,1.67E2,4.72E2,4.01E2,1.51E2,3E2,2.2E1,9E1,2.89E2,1.27E2,3.3E1,7.1E1,3.02E2,2.79E2,5.01E2,5.3E2,4.59E2,4.72E2,7.7E2,1.81E2,1.46E2,6.08E2,1.13E2,5.4E1,2.13E2,2.59E2,2.33E2,1.68E2,1.2E2,3.1E1,4.6E1,2.54E2,5E0,1.7E1,1.4E1,7.6E1,8.3E1,2.06E2,1E2,2.7E1,1.1E1,2.2E1,3.6E1,3.5E1,1.92E2,1.1E2,1.46E2,1.33E2,2.02E2,2.99E2,3.8E2,1.5E2,2.93E2,1.66E2,1.67E2,3.05E2,3.38E2,4.32E2,1.36E2,4.5E1,3.7E1,1.09E2,3.21E2,2.87E2,8.7E1,2.6E1,1.9E1,3.5E1,1.24E2,8.9E1,1.25E2,1.34E2,1.24E2,1.09E2,5.2E1,1.16E2,5.6E1,6.4E1,2.1E1,1E1,1.3E1,3.3E1,1.59E2,9.5E1,1.6E1,1E0,1.1E1,3E0,6.2E1,1.4E1,6.7E1,1.6E1,5.7E1,1.49E2,7.5E1,2.5E1,6E0,2.1E1,3E0,8E0,4E0,1.8E1,7E0,2.9E1,3.1E1,4E0],"tree_param":{"num_deleted":"0","num_feature":"21","num_nodes":"125","size_leaf_vector":"1"}},{"base_weights":[8.933946E-2,-1.0743369E1,4.9735252E1,-1.7598232E1,4.2874293E0,7.5626526E1,2.1206707E1,-2.4056654E1,-1.3637204E1,1.6295897E1,-8.321567E0,6.2773453E1,1.4543614E2,1.205197E1,4.71142E1,-2.138765E1,-2.679678E1,-7.020005E0,-1.9728077E1,1.2456955E1,2.7881369E1,-9.717011E0,3.1902747E0,5.0537308E1,7.670664E1,1.26188545E2,1.7115715E1,1.6836313E1,6.16205E0,5.5018383E1,3.492827E1,-2.438067E1,-1.752428E1,-2.8169329E1,-2.419166E1,-1.0270244E1,-1.9354628E0,-2.217267E1,-1.7724604E1,1.7462017E1,6.156765E0,3.544717E1,1.9040445E1,-3.398838E0,-1.1155981E1,-4.2889414E0,9.805951E0,4.3240025E1,6.3275867E1,9.2017334E1,5.4434998E1,7.0822586E1,1.3937897E2,-6.1087317E0,1.8992727E1,3.0422103E-1,1.2016572E1,4.3272015E1,7.136523E1,-4.850591E-1,3.8216263E1,-2.8184867E0,-2.2821367E0,-1.0935756E0,-1.887133E0,-3.0430267E0,-2.7120173E0,-2.647948E0,-2.2991261E0,-1.293167E0,-6.653555E-1,2.5266317E-1,-7.1427554E-1,-1.7413338E0,-2.318838E0,-1.9958512E0,-1.5970658E0,1.4633434E0,2.9402292E0,-1.2809988E0,8.036992E-1,2.8230553E0,4.19153E0,7.372629E-1,2.400656E0,-1.1329864E0,-7.2184086E-2,-1.3120983E0,-6.5038705E-1,-6.92997E-1,7.8016776E-1,1.7493464E0,-2.443724E-1,6.321492E0,3.85976E0,5.124699E0,7.943657E0,7.5687075E0,1.0997175E1,4.708472E0,6.903933E0,8.736037E0,2.6890051E0,8.764358E0,1.5353914E1,-1.2248067E0,1.0257726E0,1.0388888E0,2.291316E0,-6.2589014E-1,2.9445207E-1,8.49729E-1,4.0024953E0,1.6008049E0,4.786528E0,7.5620875E0,2.1832684E-1,-1.1544973E0,7.931141E-1,4.158462E0,1.6753972E0],"categories":[],"categories_nodes":[],"categories_segments":[],"categories_sizes":[],"default_left":[0,0,0,0,0,0,0,0,0,0,0,0,0,0,0,0,0,0,0,0,0,0,0,0,0,0,0,0,0,0,0,0,0,0,0,0,0,0,0,0,0,0,0,0,0,0,0,0,0,0,0,0,0,0,0,0,0,0,0,0,0,0,0,0,0,0,0,0,0,0,0,0,0,0,0,0,0,0,0,0,0,0,0,0,0,0,0,0,0,0,0,0,0,0,0,0,0,0,0,0,0,0,0,0,0,0,0,0,0,0,0,0,0,0,0,0,0,0,0,0,0],"id":12,"left_children":[1,3,5,7,9,11,13,15,17,19,21,23,25,27,29,31,33,35,37,39,41,43,45,47,49,51,-1,53,55,57,59,61,63,65,67,69,71,73,75,77,79,81,83,85,87,89,91,93,95,97,99,101,103,105,107,109,111,113,115,117,119,-1,-1,-1,-1,-1,-1,-1,-1,-1,-1,-1,-1,-1,-1,-1,-1,-1,-1,-1,-1,-1,-1,-1,-1,-1,-1,-1,-1,-1,-1,-1,-1,-1,-1,-1,-1,-1,-1,-1,-1,-1,-1,-1,-1,-1,-1,-1,-1,-1,-1,-1,-1,-1,-1,-1,-1,-1,-1,-1,-1],"loss_changes":[3.4558975E6,5.4357994E5,8.485715E5,9.23555E4,2.5042412E5,5.31923E5,1.2964192E5,9.490125E3,9.046606E4,3.732378E4,1.2994766E4,8.3243125E4,2.44435E4,1.1365277E4,1.1852094E4,7.6900938E3,1.7320938E3,1.7811648E4,5.3372812E3,2.0010445E4,1.33716875E4,6.5080703E3,4.3963037E3,2.2827062E4,7.580675E4,3.1755938E4,0E0,1.119932E4,6.306585E3,1.3233234E4,6.888422E3,1.6880156E3,2.5448984E3,2.0896875E2,5.03125E1,6.2475703E3,9.823399E3,2.1244375E3,2.2202188E3,1.1559539E4,1.0230904E4,4.0446562E3,5.5594375E3,2.8580513E3,5.2715312E3,1.3951957E3,4.4687173E3,1.4066375E4,1.4979844E4,3.24315E4,7.3765312E3,7.0959883E3,1.9509375E4,2.1352205E3,6.6767656E3,1.62999E3,8.728279E3,5.7457734E3,9.844953E3,6.5005945E2,3.2070938E3,0E0,0E0,0E0,0E0,0E0,0E0,0E0,0E0,0E0,0E0,0E0,0E0,0E0,0E0,0E0,0E0,0E0,0E0,0E0,0E0,0E0,0E0,0E0,0E0,0E0,0E0,0E0,0E0,0E0,0E0,0E0,0E0,0E0,0E0,0E0,0E0,0E0,0E0,0E0,0E0,0E0,0E0,0E0,0E0,0E0,0E0,0E0,0E0,0E0,0E0,0E0,0E0,0E0,0E0,0E0,0E0,0E0,0E0,0E0,0E0],"parents":[2147483647,0,0,1,1,2,2,3,3,4,4,5,5,6,6,7,7,8,8,9,9,10,10,11,11,12,12,13,13,14,14,15,15,16,16,17,17,18,18,19,19,20,20,21,21,22,22,23,23,24,24,25,25,27,27,28,28,29,29,30,30,31,31,32,32,33,33,34,34,35,35,36,36,37,37,38,38,39,39,40,40,41,41,42,42,43,43,44,44,45,45,46,46,47,47,48,48,49,49,50,50,51,51,52,52,53,53,54,54,55,55,56,56,57,57,58,58,59,59,60,60],"right_children":[2,4,6,8,10,12,14,16,18,20,22,24,26,28,30,32,34,36,38,40,42,44,46,48,50,52,-1,54,56,58,60,62,64,66,68,70,72,74,76,78,80,82,84,86,88,90,92,94,96,98,100,102,104,106,108,110,112,114,116,118,120,-1,-1,-1,-1,-1,-1,-1,-1,-1,-1,-1,-1,-1,-1,-1,-1,-1,-1,-1,-1,-1,-1,-1,-1,-1,-1,-1,-1,-1,-1,-1,-1,-1,-1,-1,-1,-1,-1,-1,-1,-1,-1,-1,-1,-1,-1,-1,-1,-1,-1,-1,-1,-1,-1,-1,-1,-1,-1,-1,-1],"split_conditions":[2.007E3,1.312E3,1E0,8.08E2,1E0,3.292E3,2.893E3,1E0,1E0,1.734E3,1.834E3,2.536E3,7E0,2E0,2E0,6.79E2,7.18E2,1.05E3,1.011E3,2E0,2E0,1E0,1E0,7E0,2E0,3.452E3,1.7115715E1,8E-2,1E0,6E0,4E-2,4.27E2,1E0,4.63E2,4E0,6E0,2E0,1E0,5E0,9E0,1E0,1E0,1E0,1.481E3,1.676E3,2E0,2E0,1E0,2.361E3,1E0,8E0,5.2E-1,2.5E-1,5E0,4E0,4E0,2.759E3,1E0,9.2E-1,3E0,8.667E-1,-2.8184867E0,-2.2821367E0,-1.0935756E0,-1.887133E0,-3.0430267E0,-2.7120173E0,-2.647948E0,-2.2991261E0,-1.293167E0,-6.653555E-1,2.5266317E-1,-7.1427554E-1,-1.7413338E0,-2.318838E0,-1.9958512E0,-1.5970658E0,1.4633434E0,2.9402292E0,-1.2809988E0,8.036992E-1,2.8230553E0,4.19153E0,7.372629E-1,2.400656E0,-1.1329864E0,-7.2184086E-2,-1.3120983E0,-6.5038705E-1,-6.92997E-1,7.8016776E-1,1.7493464E0,-2.443724E-1,6.321492E0,3.85976E0,5.124699E0,7.943657E0,7.5687075E0,1.0997175E1,4.708472E0,6.903933E0,8.736037E0,2.6890051E0,8.764358E0,1.5353914E1,-1.2248067E0,1.0257726E0,1.0388888E0,2.291316E0,-6.2589014E-1,2.9445207E-1,8.49729E-1,4.0024953E0,1.6008049E0,4.786528E0,7.5620875E0,2.1832684E-1,-1.1544973E0,7.931141E-1,4.158462E0,1.6753972E0],"split_indices":[2,2,0,2,0,2,2,0,0,2,2,2,9,7,7,2,2,2,2,7,7,7,15,9,7,2,0,20,12,9,20,2,7,2,9,9,7,7,9,9,9,11,8,2,2,8,7,7,2,12,9,20,20,1,9,3,2,9,20,9,20,0,0,0,0,0,0,0,0,0,0,0,0,0,0,0,0,0,0,0,0,0,0,0,0,0,0,0,0,0,0,0,0,0,0,0,0,0,0,0,0,0,0,0,0,0,0,0,0,0,0,0,0,0,0,0,0,0,0,0,0],"split_type":[0,0,0,0,0,0,0,0,0,0,0,0,0,0,0,0,0,0,0,0,0,0,0,0,0,0,0,0,0,0,0,0,0,0,0,0,0,0,0,0,0,0,0,0,0,0,0,0,0,0,0,0,0,0,0,0,0,0,0,0,0,0,0,0,0,0,0,0,0,0,0,0,0,0,0,0,0,0,0,0,0,0,0,0,0,0,0,0,0,0,0,0,0,0,0,0,0,0,0,0,0,0,0,0,0,0,0,0,0,0,0,0,0,0,0,0,0,0,0,0,0],"sum_hessian":[6.424E3,5.274E3,1.15E3,3.622E3,1.652E3,6.02E2,5.48E2,1.375E3,2.247E3,8.46E2,8.06E2,5.1E2,9.2E1,4.06E2,1.42E2,7.01E2,6.74E2,1.078E3,1.169E3,6.37E2,2.09E2,7.19E2,8.7E1,2.74E2,2.36E2,5.6E1,3.6E1,2.23E2,1.83E2,8.4E1,5.8E1,3.92E2,3.09E2,4.35E2,2.39E2,6.57E2,4.21E2,5.22E2,6.47E2,3.54E2,2.83E2,1.11E2,9.8E1,1.34E2,5.85E2,4.1E1,4.6E1,1.77E2,9.7E1,1.38E2,9.8E1,1.2E1,4.4E1,1.9E1,2.04E2,9.2E1,9.1E1,5.1E1,3.3E1,5E0,5.3E1,1.09E2,2.83E2,5.4E1,2.55E2,1.29E2,3.06E2,7.5E1,1.64E2,3.77E2,2.8E2,2.27E2,1.94E2,9.5E1,4.27E2,2.8E2,3.67E2,2.88E2,6.6E1,2.5E1,2.58E2,5.5E1,5.6E1,3E1,6.8E1,3.3E1,1.01E2,4.1E2,1.75E2,3.4E1,7E0,2.8E1,1.8E1,3.1E1,1.46E2,5.8E1,3.9E1,7.5E1,6.3E1,6.8E1,3E1,8E0,4E0,1.1E1,3.3E1,1.4E1,5E0,6.5E1,1.39E2,2.6E1,6.6E1,8.2E1,9E0,8E0,4.3E1,3.1E1,2E0,2E0,3E0,4.5E1,8E0],"tree_param":{"num_deleted":"0","num_feature":"21","num_nodes":"121","size_leaf_vector":"1"}},{"base_weights":[4.4792086E-1,-1.1244866E1,3.663924E1,-1.7817844E1,-1.8891826E0,5.8321053E1,1.3121111E1,-1.3855911E1,-2.1630667E1,7.149773E0,-1.1210695E1,4.020317E1,9.788063E1,5.781948E0,3.3486816E1,-2.2466784E1,-1.1442592E1,-2.604474E1,-2.0439829E1,9.916587E0,-4.776117E0,-8.426399E0,-1.6021135E1,5.0407883E1,2.9367567E1,1.11538734E2,7.115271E1,1.1855005E1,-5.124994E-1,4.5639935E1,2.0998827E1,-2.1002039E1,-2.584005E0,-9.767327E0,-1.8791943E1,-2.4809272E0,-2.8027372E0,-1.9492119E1,-2.4186543E1,2.0565044E1,7.422443E0,-1.9469279E0,-1.3974869E1,-1.0919234E1,-5.8336873E0,-1.4815673E1,-2.2724186E1,2.721902E1,5.427202E1,3.4635273E1,2.0145205E1,1.3141983E2,8.827529E1,1.04675575E2,5.8582874E1,7.5802274E0,1.5358846E1,2.5881667E0,-4.9928155E0,3.504897E1,6.199759E1,3.928243E1,1.6225113E1,-1.8068037E0,-2.1834972E0,-1.2013369E0,-7.2880095E-1,-1.6926699E0,-2.4749582E0,-1.6102533E0,-2.0262167E0,-2.3044355E0,-2.7188787E0,1.3280051E0,2.4511843E0,3.3352372E-1,1.0996562E0,-6.250204E-1,3.3488262E-1,-2.0860107E0,-6.4820284E-1,-8.772511E-1,-1.3727552E0,4.3097965E-2,-7.252406E-1,-9.590373E-1,-1.6067303E0,-1.9006618E0,-2.6746814E0,4.185357E0,1.5008005E0,4.3507323E0,6.512268E0,2.344819E0,4.067267E0,2.4169166E0,8.64727E-1,1.8259588E1,1.1468157E1,6.3484864E0,1.0614596E1,5.9722824E0,1.2060973E1,3.3073876E0,7.604898E0,1.5147048E0,4.8213506E-1,1.221213E0,1.9831196E0,-3.7981007E-1,7.132146E-1,-8.888568E-1,-1.2124848E-1,2.39274E0,4.7262974E0,6.569768E0,-3.0693817E-1,5.4177017E0,2.2170768E0,1.8069973E0,-9.84731E-1],"categories":[],"categories_nodes":[],"categories_segments":[],"categories_sizes":[],"default_left":[0,0,0,0,0,0,0,0,0,0,0,0,0,0,0,0,0,0,0,0,0,0,0,0,0,0,0,0,0,0,0,0,0,0,0,0,0,0,0,0,0,0,0,0,0,0,0,0,0,0,0,0,0,0,0,0,0,0,0,0,0,0,0,0,0,0,0,0,0,0,0,0,0,0,0,0,0,0,0,0,0,0,0,0,0,0,0,0,0,0,0,0,0,0,0,0,0,0,0,0,0,0,0,0,0,0,0,0,0,0,0,0,0,0,0,0,0,0,0,0,0],"id":13,"left_children":[1,3,5,7,9,11,13,15,17,19,21,23,25,27,29,31,33,35,37,39,41,43,45,47,49,51,53,55,57,59,61,63,-1,65,67,-1,-1,69,71,73,75,77,79,81,83,85,87,89,91,93,95,97,99,101,103,105,107,109,111,113,115,117,119,-1,-1,-1,-1,-1,-1,-1,-1,-1,-1,-1,-1,-1,-1,-1,-1,-1,-1,-1,-1,-1,-1,-1,-1,-1,-1,-1,-1,-1,-1,-1,-1,-1,-1,-1,-1,-1,-1,-1,-1,-1,-1,-1,-1,-1,-1,-1,-1,-1,-1,-1,-1,-1,-1,-1,-1,-1,-1],"loss_changes":[2.7121328E6,2.9784662E5,7.9725275E5,4.2677312E4,1.6859364E5,5.7948775E5,1.1220574E5,2.8794438E4,7.079E3,3.3572023E4,1.3057789E4,6.0441188E4,8.5152E4,2.1183578E4,2.9243438E4,9.643125E2,1.3285906E4,4.9296875E1,3.5941875E3,2.1758344E4,4.9695933E3,3.9822656E3,2.5722266E3,2.4239438E4,1.2613391E4,6.5637E4,3.1370312E4,4.107414E3,3.8054285E3,1.5151375E4,8.090711E3,1.3823438E2,0E0,4.885258E3,1.8257891E3,0E0,0E0,2.0724688E3,1.51875E2,4.1598594E3,9.750789E3,3.3937158E3,2.186334E3,1.7966953E3,2.749455E3,1.8602734E3,2.842168E2,7.056076E3,2.5783625E4,1.0730859E4,4.510258E3,5.444025E4,2.8703062E4,9.271391E3,2.7336156E4,2.6199653E3,1.9250938E3,4.7281772E3,1.6386726E3,7.4269766E3,9.350297E3,3.8962773E3,4.074039E3,0E0,0E0,0E0,0E0,0E0,0E0,0E0,0E0,0E0,0E0,0E0,0E0,0E0,0E0,0E0,0E0,0E0,0E0,0E0,0E0,0E0,0E0,0E0,0E0,0E0,0E0,0E0,0E0,0E0,0E0,0E0,0E0,0E0,0E0,0E0,0E0,0E0,0E0,0E0,0E0,0E0,0E0,0E0,0E0,0E0,0E0,0E0,0E0,0E0,0E0,0E0,0E0,0E0,0E0,0E0,0E0,0E0,0E0],"parents":[2147483647,0,0,1,1,2,2,3,3,4,4,5,5,6,6,7,7,8,8,9,9,10,10,11,11,12,12,13,13,14,14,15,15,16,16,17,17,18,18,19,19,20,20,21,21,22,22,23,23,24,24,25,25,26,26,27,27,28,28,29,29,30,30,31,31,33,33,34,34,37,37,38,38,39,39,40,40,41,41,42,42,43,43,44,44,45,45,46,46,47,47,48,48,49,49,50,50,51,51,52,52,53,53,54,54,55,55,56,56,57,57,58,58,59,59,60,60,61,61,62,62],"right_children":[2,4,6,8,10,12,14,16,18,20,22,24,26,28,30,32,34,36,38,40,42,44,46,48,50,52,54,56,58,60,62,64,-1,66,68,-1,-1,70,72,74,76,78,80,82,84,86,88,90,92,94,96,98,100,102,104,106,108,110,112,114,116,118,120,-1,-1,-1,-1,-1,-1,-1,-1,-1,-1,-1,-1,-1,-1,-1,-1,-1,-1,-1,-1,-1,-1,-1,-1,-1,-1,-1,-1,-1,-1,-1,-1,-1,-1,-1,-1,-1,-1,-1,-1,-1,-1,-1,-1,-1,-1,-1,-1,-1,-1,-1,-1,-1,-1,-1,-1,-1,-1],"split_conditions":[4E0,3E0,1E0,1E0,1E0,5E0,5E0,2E0,2E0,1.5E1,7E0,5E0,7E0,5E0,5E0,1E1,1.5E1,7E0,1.5E1,1E0,2.5E1,1E0,2.5E1,1.333E-1,1.5E1,2E0,1E0,1E0,1.5E1,1.5E1,1E0,1E0,-2.584005E0,1E0,2.5E1,-2.4809272E0,-2.8027372E0,1E0,2.5E1,3.333E-1,1E0,6.4E-1,1E0,2E0,1E0,1E0,2E0,2E0,1E0,3E0,2.5E1,1E0,1E0,1E1,1E0,1E0,9E0,5E0,1E0,5.833E-1,2.5E1,1.2E1,2.5E1,-1.8068037E0,-2.1834972E0,-1.2013369E0,-7.2880095E-1,-1.6926699E0,-2.4749582E0,-1.6102533E0,-2.0262167E0,-2.3044355E0,-2.7188787E0,1.3280051E0,2.4511843E0,3.3352372E-1,1.0996562E0,-6.250204E-1,3.3488262E-1,-2.0860107E0,-6.4820284E-1,-8.772511E-1,-1.3727552E0,4.3097965E-2,-7.252406E-1,-9.590373E-1,-1.6067303E0,-1.9006618E0,-2.6746814E0,4.185357E0,1.5008005E0,4.3507323E0,6.512268E0,2.344819E0,4.067267E0,2.4169166E0,8.64727E-1,1.8259588E1,1.1468157E1,6.3484864E0,1.0614596E1,5.9722824E0,1.2060973E1,3.3073876E0,7.604898E0,1.5147048E0,4.8213506E-1,1.221213E0,1.9831196E0,-3.7981007E-1,7.132146E-1,-8.888568E-1,-1.2124848E-1,2.39274E0,4.7262974E0,6.569768E0,-3.0693817E-1,5.4177017E0,2.2170768E0,1.8069973E0,-9.84731E-1],"split_indices":[1,1,0,0,0,1,1,1,1,6,6,6,6,6,6,6,6,6,6,7,6,18,6,20,6,7,7,15,6,5,7,7,0,12,6,0,0,7,6,20,18,20,19,7,7,7,7,6,15,4,6,6,17,6,18,7,4,4,12,20,4,5,6,0,0,0,0,0,0,0,0,0,0,0,0,0,0,0,0,0,0,0,0,0,0,0,0,0,0,0,0,0,0,0,0,0,0,0,0,0,0,0,0,0,0,0,0,0,0,0,0,0,0,0,0,0,0,0,0,0,0],"split_type":[0,0,0,0,0,0,0,0,0,0,0,0,0,0,0,0,0,0,0,0,0,0,0,0,0,0,0,0,0,0,0,0,0,0,0,0,0,0,0,0,0,0,0,0,0,0,0,0,0,0,0,0,0,0,0,0,0,0,0,0,0,0,0,0,0,0,0,0,0,0,0,0,0,0,0,0,0,0,0,0,0,0,0,0,0,0,0,0,0,0,0,0,0,0,0,0,0,0,0,0,0,0,0,0,0,0,0,0,0,0,0,0,0,0,0,0,0,0,0,0,0],"sum_hessian":[6.407E3,4.843E3,1.564E3,2.844E3,1.999E3,8.13E2,7.51E2,1.397E3,1.447E3,1.015E3,9.84E2,5.59E2,2.54E2,5.53E2,1.98E2,3.04E2,1.093E3,3.03E2,1.144E3,8.24E2,1.91E2,6.25E2,3.59E2,2.86E2,2.73E2,1.66E2,8.8E1,2.81E2,2.72E2,9.9E1,9.9E1,2.17E2,8.7E1,8.92E2,2.01E2,1.95E2,1.08E2,9.18E2,2.26E2,1.55E2,6.69E2,1.47E2,4.4E1,3.17E2,3.08E2,3.07E2,5.2E1,4.2E1,2.44E2,1.72E2,1.01E2,8.7E1,7.9E1,2.2E1,6.6E1,1.28E2,1.53E2,1.61E2,1.11E2,6.2E1,3.7E1,1.9E1,8E1,5.3E1,1.64E2,4.66E2,4.26E2,1.56E2,4.5E1,1.74E2,7.44E2,1.7E2,5.6E1,5.6E1,9.9E1,3.13E2,3.56E2,8.1E1,6.6E1,2.2E1,2.2E1,1.82E2,1.35E2,5.7E1,2.51E2,6.1E1,2.46E2,3E1,2.2E1,1.8E1,2.4E1,1.25E2,1.19E2,6.2E1,1.1E2,7.4E1,2.7E1,1.9E1,6.8E1,3.5E1,4.4E1,7E0,1.5E1,2.8E1,3.8E1,3.3E1,9.5E1,9.2E1,6.1E1,6.7E1,9.4E1,5.4E1,5.7E1,3.4E1,2.8E1,3.5E1,2E0,9E0,1E1,7.5E1,5E0],"tree_param":{"num_deleted":"0","num_feature":"21","num_nodes":"121","size_leaf_vector":"1"}},{"base_weights":[7.75407E-2,-7.666265E0,3.694878E1,-1.2948694E1,4.5080533E0,5.7330345E1,1.4513304E1,-8.486669E0,-1.7363157E1,1.5624532E1,-6.641602E0,4.755526E1,8.842321E1,8.481728E0,3.2454712E1,-1.4917138E1,-4.0590835E0,-2.0309422E1,-1.5285776E1,2.7019238E1,1.2149766E1,-1.0442217E1,-4.609698E0,4.1059235E1,6.5793365E1,1.2645271E2,7.724769E1,1.373094E1,1.4843217E0,2.255493E1,4.2930176E1,-1.1438512E1,-1.5754951E1,-5.553964E-1,-7.792664E0,-2.1630133E1,-1.9056295E1,-1.3309664E1,-1.7643877E1,2.3659016E1,3.8136703E1,6.3735485E0,1.7924057E1,-1.1165003E1,-4.693939E0,1.6125931E-1,-5.6999426E0,5.0315025E1,3.0234938E1,3.0988916E1,6.914442E1,6.7249535E1,1.6776988E2,4.3739143E1,8.2078094E1,1.9255142E1,1.0805817E1,-5.608672E0,7.3670816E0,3.154134E1,7.6278963E0,2.3679523E1,5.315177E1,-1.4510659E0,-8.3375067E-1,-1.7262553E0,-1.4302801E0,-4.5996934E-1,6.6086775E-1,-1.6693188E0,-6.8735784E-1,-2.1695304E0,-1.0291959E0,-1.6093482E0,-1.9662937E0,-1.543033E0,-1.0765814E0,-1.953842E0,-1.5440458E0,1.5570351E0,3.0057552E0,2.4641178E0,5.852687E0,-1.0082182E0,7.779867E-1,1.4781951E0,2.848582E0,-1.1784202E0,-6.7737365E-1,2.0488253E-1,-1.1160591E0,-1.7596762E-1,7.836938E-1,-1.58628E-1,-6.4036983E-1,3.4036777E0,5.640781E0,1.9491857E0,3.557369E0,-7.577389E-1,4.4686284E0,5.077152E0,7.4548516E0,2.0939546E0,8.367957E0,9.440404E0,1.9920544E1,5.689552E0,-9.953877E-1,5.968051E0,9.054752E0,2.447949E0,1.3680025E0,7.404818E-1,1.9254751E0,-1.2527226E0,-1.345366E-1,1.708213E-1,1.2872471E0,2.2608364E0,5.347858E0,1.1792128E0,-4.2566967E-1,1.308787E0,3.7199056E0,2.9786174E0,5.9728217E0],"categories":[],"categories_nodes":[],"categories_segments":[],"categories_sizes":[],"default_left":[0,0,0,0,0,0,0,0,0,0,0,0,0,0,0,0,0,0,0,0,0,0,0,0,0,0,0,0,0,0,0,0,0,0,0,0,0,0,0,0,0,0,0,0,0,0,0,0,0,0,0,0,0,0,0,0,0,0,0,0,0,0,0,0,0,0,0,0,0,0,0,0,0,0,0,0,0,0,0,0,0,0,0,0,0,0,0,0,0,0,0,0,0,0,0,0,0,0,0,0,0,0,0,0,0,0,0,0,0,0,0,0,0,0,0,0,0,0,0,0,0,0,0,0,0,0,0],"id":14,"left_children":[1,3,5,7,9,11,13,15,17,19,21,23,25,27,29,31,33,35,37,39,41,43,45,47,49,51,53,55,57,59,61,63,65,67,69,71,73,75,77,79,81,83,85,87,89,91,93,95,97,99,101,103,105,107,109,111,113,115,117,119,121,123,125,-1,-1,-1,-1,-1,-1,-1,-1,-1,-1,-1,-1,-1,-1,-1,-1,-1,-1,-1,-1,-1,-1,-1,-1,-1,-1,-1,-1,-1,-1,-1,-1,-1,-1,-1,-1,-1,-1,-1,-1,-1,-1,-1,-1,-1,-1,-1,-1,-1,-1,-1,-1,-1,-1,-1,-1,-1,-1,-1,-1,-1,-1,-1,-1],"loss_changes":[1.8407692E6,3.4270194E5,5.1085325E5,7.3048375E4,2.000269E5,1.7390112E5,5.7511508E4,5.2611625E4,1.11165625E4,3.166361E4,6.1761875E3,5.0375438E4,4.930675E4,1.4708701E4,1.2928172E4,2.0172812E3,1.4345855E4,8.605E2,4.8863594E3,6.120875E3,2.059832E4,1.1109297E3,2.7421162E3,3.1841125E4,1.1386531E4,6.210078E4,1.4214625E4,3.492332E3,7.2599834E3,9.283379E3,1.133482E4,1.3080293E3,1.0775938E3,1.6458451E4,4.2290215E3,4.790625E1,4.0790625E2,3.081461E3,1.7772188E3,7.1400703E3,1.0115219E4,7.298741E3,9.866641E3,5.9450586E2,1.4617684E3,1.4734943E3,1.2318018E3,1.57340625E4,8.2539375E3,6.6776885E3,6.6404062E3,8.900035E3,2.0401219E4,1.1868824E4,1.2617125E4,1.9369766E3,4.225115E3,2.3133237E3,2.9376665E3,7.4133906E3,1.4359209E3,2.9498057E3,4.521086E3,0E0,0E0,0E0,0E0,0E0,0E0,0E0,0E0,0E0,0E0,0E0,0E0,0E0,0E0,0E0,0E0,0E0,0E0,0E0,0E0,0E0,0E0,0E0,0E0,0E0,0E0,0E0,0E0,0E0,0E0,0E0,0E0,0E0,0E0,0E0,0E0,0E0,0E0,0E0,0E0,0E0,0E0,0E0,0E0,0E0,0E0,0E0,0E0,0E0,0E0,0E0,0E0,0E0,0E0,0E0,0E0,0E0,0E0,0E0,0E0,0E0,0E0,0E0,0E0],"parents":[2147483647,0,0,1,1,2,2,3,3,4,4,5,5,6,6,7,7,8,8,9,9,10,10,11,11,12,12,13,13,14,14,15,15,16,16,17,17,18,18,19,19,20,20,21,21,22,22,23,23,24,24,25,25,26,26,27,27,28,28,29,29,30,30,31,31,32,32,33,33,34,34,35,35,36,36,37,37,38,38,39,39,40,40,41,41,42,42,43,43,44,44,45,45,46,46,47,47,48,48,49,49,50,50,51,51,52,52,53,53,54,54,55,55,56,56,57,57,58,58,59,59,60,60,61,61,62,62],"right_children":[2,4,6,8,10,12,14,16,18,20,22,24,26,28,30,32,34,36,38,40,42,44,46,48,50,52,54,56,58,60,62,64,66,68,70,72,74,76,78,80,82,84,86,88,90,92,94,96,98,100,102,104,106,108,110,112,114,116,118,120,122,124,126,-1,-1,-1,-1,-1,-1,-1,-1,-1,-1,-1,-1,-1,-1,-1,-1,-1,-1,-1,-1,-1,-1,-1,-1,-1,-1,-1,-1,-1,-1,-1,-1,-1,-1,-1,-1,-1,-1,-1,-1,-1,-1,-1,-1,-1,-1,-1,-1,-1,-1,-1,-1,-1,-1,-1,-1,-1,-1,-1,-1,-1,-1,-1,-1],"split_conditions":[4E0,3E0,1E0,1E0,1E0,5E0,5E0,2E0,2E0,1E0,4E0,8E0,1E0,2E0,1E0,1E0,2E0,1E0,2E0,2E0,1E0,9.167E-1,1E0,2E0,1E0,2.667E-1,7E0,1E0,5.2E-1,2E0,1E0,5E0,1E0,7E0,1E0,9E0,1E0,6E0,1E0,1E0,1E0,4E-2,2E0,1E0,2E0,2E0,7E0,3E-1,2.8E-1,1.667E-1,1E0,1E0,1E0,6.4E-1,1E0,1E0,8E0,1.2E1,1E0,6.8E-1,1.5E1,1E0,1E-1,-1.4510659E0,-8.3375067E-1,-1.7262553E0,-1.4302801E0,-4.5996934E-1,6.6086775E-1,-1.6693188E0,-6.8735784E-1,-2.1695304E0,-1.0291959E0,-1.6093482E0,-1.9662937E0,-1.543033E0,-1.0765814E0,-1.953842E0,-1.5440458E0,1.5570351E0,3.0057552E0,2.4641178E0,5.852687E0,-1.0082182E0,7.779867E-1,1.4781951E0,2.848582E0,-1.1784202E0,-6.7737365E-1,2.0488253E-1,-1.1160591E0,-1.7596762E-1,7.836938E-1,-1.58628E-1,-6.4036983E-1,3.4036777E0,5.640781E0,1.9491857E0,3.557369E0,-7.577389E-1,4.4686284E0,5.077152E0,7.4548516E0,2.0939546E0,8.367957E0,9.440404E0,1.9920544E1,5.689552E0,-9.953877E-1,5.968051E0,9.054752E0,2.447949E0,1.3680025E0,7.404818E-1,1.9254751E0,-1.2527226E0,-1.345366E-1,1.708213E-1,1.2872471E0,2.2608364E0,5.347858E0,1.1792128E0,-4.2566967E-1,1.308787E0,3.7199056E0,2.9786174E0,5.9728217E0],"split_indices":[3,3,0,0,0,3,3,3,3,7,9,9,7,7,18,7,7,11,7,8,12,20,7,7,11,20,5,7,20,7,16,9,11,9,9,9,7,9,10,13,16,20,8,16,7,8,5,20,20,20,8,11,12,20,8,10,9,5,16,20,5,11,20,0,0,0,0,0,0,0,0,0,0,0,0,0,0,0,0,0,0,0,0,0,0,0,0,0,0,0,0,0,0,0,0,0,0,0,0,0,0,0,0,0,0,0,0,0,0,0,0,0,0,0,0,0,0,0,0,0,0,0,0,0,0,0,0],"split_type":[0,0,0,0,0,0,0,0,0,0,0,0,0,0,0,0,0,0,0,0,0,0,0,0,0,0,0,0,0,0,0,0,0,0,0,0,0,0,0,0,0,0,0,0,0,0,0,0,0,0,0,0,0,0,0,0,0,0,0,0,0,0,0,0,0,0,0,0,0,0,0,0,0,0,0,0,0,0,0,0,0,0,0,0,0,0,0,0,0,0,0,0,0,0,0,0,0,0,0,0,0,0,0,0,0,0,0,0,0,0,0,0,0,0,0,0,0,0,0,0,0,0,0,0,0,0,0],"sum_hessian":[6.445E3,5.327E3,1.118E3,3.715E3,1.612E3,5.85E2,5.33E2,1.849E3,1.866E3,8.07E2,8.05E2,4.47E2,1.38E2,4E2,1.33E2,7.53E2,1.096E3,7.68E2,1.098E3,1.87E2,6.2E2,2.79E2,5.26E2,3.32E2,1.15E2,2.9E1,1.09E2,2.28E2,1.72E2,7E1,6.3E1,1.49E2,6.04E2,5.66E2,5.3E2,3.66E2,4.02E2,6.01E2,4.97E2,1.46E2,4.1E1,3.11E2,3.09E2,2.47E2,3.2E1,9.8E1,4.28E2,1.77E2,1.55E2,1.1E1,1.04E2,1.3E1,1.6E1,1.5E1,9.4E1,7.7E1,1.51E2,7.8E1,9.4E1,4.3E1,2.7E1,2.3E1,4E1,7.3E1,7.6E1,2.91E2,3.13E2,3.62E2,2.04E2,4.8E1,4.82E2,3.63E2,3E0,7.3E1,3.29E2,3.25E2,2.76E2,2.63E2,2.34E2,6.6E1,8E1,2.6E1,1.5E1,2.4E1,2.87E2,2.4E2,6.9E1,2.15E2,3.2E1,1.6E1,1.6E1,7.9E1,1.9E1,6.3E1,3.65E2,5E1,1.27E2,5.3E1,1.02E2,3E0,8E0,2.6E1,7.8E1,4E0,9E0,6E0,1E1,1.2E1,3E0,2.8E1,6.6E1,3.8E1,3.9E1,1.09E2,4.2E1,2.9E1,4.9E1,4.7E1,4.7E1,3.2E1,1.1E1,2E1,7E0,1.4E1,9E0,1E1,3E1],"tree_param":{"num_deleted":"0","num_feature":"21","num_nodes":"127","size_leaf_vector":"1"}},{"base_weights":[3.542759E-1,-6.781555E0,3.3747868E1,-1.1521345E1,4.2832675E0,5.2234585E1,1.3973358E1,-7.3026323E0,-1.5536566E1,1.3505625E1,-5.217952E0,4.165249E1,8.2769936E1,8.900346E0,2.9701445E1,-1.2873097E1,-3.4650855E0,-1.8328865E1,-1.372166E1,2.030537E1,2.7140715E0,-2.3208883E0,-9.636199E0,6.449269E1,3.4121254E1,9.888901E1,6.288159E1,1.3041801E1,2.4938178E0,3.6764206E1,2.138248E1,-1.1526835E1,-1.8328169E1,-1.5127375E0,-1.2602755E1,-1.7438797E1,-2.1818464E0,-1.1992183E1,-1.6696798E1,1.7171358E1,3.205856E1,4.6584134E0,-1.3206422E1,-6.382791E0,-1.6370985E-1,-8.558139E0,-1.7513874E1,4.25563E1,7.382618E1,2.3852293E1,4.8549313E1,1.16932884E2,7.10375E1,7.24101E1,3.765403E1,1.8967688E1,3.963294E0,4.5232267E0,-1.5201295E1,3.8087643E1,5.4055367E0,4.3378654E1,1.4795903E1,-7.586369E-1,-1.2582802E0,-1.5859193E0,-2.0968351E0,-1.2370596E0,-4.0734317E-2,-1.5698684E0,-6.6890264E-1,-1.8354126E0,-1.5304431E0,-1.4321083E0,-9.9430555E-1,-1.8714554E0,-1.4403872E0,2.6161952E0,1.4136347E0,1.8639458E0,4.2325583E0,1.5203356E0,2.0955327E-1,-1.7008059E0,7.3692286E-1,-7.620091E-1,4.2990785E-2,-6.5681696E-1,1.0733044E-1,-1.1038054E0,-6.105861E-1,-1.9671402E0,-5.76534E-1,5.223042E0,9.8803663E-1,5.728687E0,9.562297E0,1.2673172E0,3.624347E0,6.042307E0,3.1744099E0,1.6219927E1,9.2813835E0,1.0603541E0,7.874191E0,5.588974E0,8.487468E0,4.633729E0,6.001404E-2,1.3246444E0,2.4588597E0,-6.051357E-1,1.0740584E0,4.3313134E-2,1.079194E0,-1.6142797E0,-6.8626404E-3,2.854961E0,4.550791E0,1.5643016E0,-1.265345E0,5.828058E0,2.0150936E0,2.0091252E0,4.26577E-1],"categories":[],"categories_nodes":[],"categories_segments":[],"categories_sizes":[],"default_left":[0,0,0,0,0,0,0,0,0,0,0,0,0,0,0,0,0,0,0,0,0,0,0,0,0,0,0,0,0,0,0,0,0,0,0,0,0,0,0,0,0,0,0,0,0,0,0,0,0,0,0,0,0,0,0,0,0,0,0,0,0,0,0,0,0,0,0,0,0,0,0,0,0,0,0,0,0,0,0,0,0,0,0,0,0,0,0,0,0,0,0,0,0,0,0,0,0,0,0,0,0,0,0,0,0,0,0,0,0,0,0,0,0,0,0,0,0,0,0,0,0,0,0,0,0],"id":15,"left_children":[1,3,5,7,9,11,13,15,17,19,21,23,25,27,29,31,33,35,37,39,41,43,45,47,49,51,53,55,57,59,61,63,65,67,69,71,-1,73,75,77,79,81,83,85,87,89,91,93,95,97,99,101,103,105,107,109,111,113,115,117,119,121,123,-1,-1,-1,-1,-1,-1,-1,-1,-1,-1,-1,-1,-1,-1,-1,-1,-1,-1,-1,-1,-1,-1,-1,-1,-1,-1,-1,-1,-1,-1,-1,-1,-1,-1,-1,-1,-1,-1,-1,-1,-1,-1,-1,-1,-1,-1,-1,-1,-1,-1,-1,-1,-1,-1,-1,-1,-1,-1,-1,-1,-1,-1],"loss_changes":[1.5171895E6,2.7517553E5,4.0906938E5,6.210372E4,1.3799008E5,1.8364362E5,4.3060953E4,3.828422E4,9.280969E3,5.8575375E4,9.910393E3,7.2109875E4,4.1227812E4,1.0898805E4,6.9695312E3,5.157172E3,1.8944758E4,1.9117344E3,5.686125E3,1.7498469E4,9.657535E3,4.117212E3,2.4573457E3,1.8561E4,4.7290688E4,3.189725E4,1.385975E4,1.3374375E4,5.9221895E3,2.699211E3,8.485582E3,2.3553828E3,5.996133E2,1.0520904E4,3.3186797E3,8.7759375E2,0E0,3.3270078E3,1.6643438E3,1.0244633E4,1.3264047E4,7.4541846E3,2.7848545E3,1.3772607E3,2.4471511E3,1.5867539E3,7.991084E2,1.0231711E4,2.0838844E4,2.6275516E4,2.502E4,3.6259438E4,1.4995734E4,5.3464062E3,6.728912E3,4.530242E3,6.8522144E3,3.7643516E3,2.4109839E2,3.4426719E3,9.3745215E2,3.6715215E3,2.702332E3,0E0,0E0,0E0,0E0,0E0,0E0,0E0,0E0,0E0,0E0,0E0,0E0,0E0,0E0,0E0,0E0,0E0,0E0,0E0,0E0,0E0,0E0,0E0,0E0,0E0,0E0,0E0,0E0,0E0,0E0,0E0,0E0,0E0,0E0,0E0,0E0,0E0,0E0,0E0,0E0,0E0,0E0,0E0,0E0,0E0,0E0,0E0,0E0,0E0,0E0,0E0,0E0,0E0,0E0,0E0,0E0,0E0,0E0,0E0,0E0,0E0,0E0],"parents":[2147483647,0,0,1,1,2,2,3,3,4,4,5,5,6,6,7,7,8,8,9,9,10,10,11,11,12,12,13,13,14,14,15,15,16,16,17,17,18,18,19,19,20,20,21,21,22,22,23,23,24,24,25,25,26,26,27,27,28,28,29,29,30,30,31,31,32,32,33,33,34,34,35,35,37,37,38,38,39,39,40,40,41,41,42,42,43,43,44,44,45,45,46,46,47,47,48,48,49,49,50,50,51,51,52,52,53,53,54,54,55,55,56,56,57,57,58,58,59,59,60,60,61,61,62,62],"right_children":[2,4,6,8,10,12,14,16,18,20,22,24,26,28,30,32,34,36,38,40,42,44,46,48,50,52,54,56,58,60,62,64,66,68,70,72,-1,74,76,78,80,82,84,86,88,90,92,94,96,98,100,102,104,106,108,110,112,114,116,118,120,122,124,-1,-1,-1,-1,-1,-1,-1,-1,-1,-1,-1,-1,-1,-1,-1,-1,-1,-1,-1,-1,-1,-1,-1,-1,-1,-1,-1,-1,-1,-1,-1,-1,-1,-1,-1,-1,-1,-1,-1,-1,-1,-1,-1,-1,-1,-1,-1,-1,-1,-1,-1,-1,-1,-1,-1,-1,-1,-1,-1,-1,-1,-1],"split_conditions":[4E0,3E0,1E0,1E0,1E0,5E0,5E0,2E0,2E0,7E0,7E0,2E0,5E0,7E0,5E0,1.5E1,1.5E1,1.5E1,7E0,2E0,2.5E1,4E0,2.5E1,3.5E-1,7E0,2E0,5.5E-1,2E0,2.5E1,2.2E1,1E0,1E0,2E0,1E0,6.5E-1,8E0,-2.1818464E0,5E0,1E0,1E0,1E0,1E0,8.667E-1,1E0,1.333E-1,1E0,2E0,3E0,1E0,1E0,2E0,1E0,1E0,1E0,1.5E1,1E0,5E0,7E0,1E1,1.2E1,2E0,1.2E1,6E0,-7.586369E-1,-1.2582802E0,-1.5859193E0,-2.0968351E0,-1.2370596E0,-4.0734317E-2,-1.5698684E0,-6.6890264E-1,-1.8354126E0,-1.5304431E0,-1.4321083E0,-9.9430555E-1,-1.8714554E0,-1.4403872E0,2.6161952E0,1.4136347E0,1.8639458E0,4.2325583E0,1.5203356E0,2.0955327E-1,-1.7008059E0,7.3692286E-1,-7.620091E-1,4.2990785E-2,-6.5681696E-1,1.0733044E-1,-1.1038054E0,-6.105861E-1,-1.9671402E0,-5.76534E-1,5.223042E0,9.8803663E-1,5.728687E0,9.562297E0,1.2673172E0,3.624347E0,6.042307E0,3.1744099E0,1.6219927E1,9.2813835E0,1.0603541E0,7.874191E0,5.588974E0,8.487468E0,4.633729E0,6.001404E-2,1.3246444E0,2.4588597E0,-6.051357E-1,1.0740584E0,4.3313134E-2,1.079194E0,-1.6142797E0,-6.8626404E-3,2.854961E0,4.550791E0,1.5643016E0,-1.265345E0,5.828058E0,2.0150936E0,2.0091252E0,4.26577E-1],"split_indices":[3,3,0,0,0,3,3,3,3,6,6,6,6,6,6,6,6,6,6,8,6,9,6,20,4,7,20,7,6,4,7,7,7,9,20,9,0,9,10,6,16,7,20,10,20,19,8,4,19,11,7,6,8,13,6,19,4,4,9,5,7,5,9,0,0,0,0,0,0,0,0,0,0,0,0,0,0,0,0,0,0,0,0,0,0,0,0,0,0,0,0,0,0,0,